{"config":{"d_model":8,"n_layer":1,"vocab_size":32,"nheads":2,"headdim":4,"d_state":4,"d_inner":8,"chunk_size":2,"use_mimo":false,"mimo_rank":1,"batch":1,"seqlen":4},"inputs":{"u":{"shape":[1,4,8],"data":[0.4038029611110687,-0.7139783501625061,0.8337291479110718,-0.9585452675819397,0.45363426208496094,1.2460919618606567,-2.3065085411071777,-1.2868918180465698,0.17988650500774384,-2.126762628555298,-0.13408313691616058,-1.0407685041427612,-0.7647228837013245,-0.05528254434466362,1.204850673675537,-0.982473611831665,0.4334380030632019,-0.7171905636787415,1.055369257926941,-1.4533969163894653,0.46515071392059326,0.37139150500297546,-0.004656785633414984,0.07954943925142288,0.3781784772872925,0.7051141262054443,-1.7236974239349365,-0.8434810638427734,0.4351435601711273,0.26588720083236694,-0.5870985388755798,0.0826888456940651]},"in_proj_weight":{"shape":[30,8],"data":[0.27030518651008606,0.29345211386680603,-0.08282783627510071,0.32477810978889465,-0.07746481895446777,0.07134377956390381,-0.17212924361228943,0.2076357901096344,0.31167247891426086,-0.2593767046928406,0.30730727314949036,0.06617081165313721,0.2612083852291107,0.04788193106651306,0.1704792082309723,-0.049918562173843384,0.2725493013858795,0.05225834250450134,-0.16505283117294312,0.09012016654014587,-0.16289499402046204,-0.041462212800979614,-0.14359864592552185,0.2345370352268219,-0.2790845036506653,-0.16299176216125488,-0.09983453154563904,-0.21258191764354706,0.033369481563568115,-0.34919729828834534,0.31929728388786316,-0.30033236742019653,0.2729528844356537,0.05883803963661194,-0.11480037868022919,0.21847829222679138,0.05510157346725464,0.28565821051597595,0.038650333881378174,-0.11150126159191132,0.09499400854110718,-0.09587639570236206,0.14879563450813293,0.3156602680683136,0.20437493920326233,-0.15456382930278778,0.20409390330314636,0.06325995922088623,0.1795468032360077,-0.21549257636070251,-0.3499854803085327,-0.1365990787744522,-0.2711835205554962,0.29010429978370667,0.10183444619178772,0.1464465856552124,0.11181521415710449,-0.006150394678115845,0.27669379115104675,-0.2512044906616211,0.02226102352142334,-0.2413143813610077,0.10901889204978943,-0.12175752222537994,0.1083345115184784,-0.07365983724594116,0.29323431849479675,-0.20955176651477814,-0.2108585238456726,-0.21087126433849335,0.31800106167793274,0.11782205104827881,0.3402070105075836,-0.29177922010421753,-0.3506811559200287,-0.27660736441612244,-0.2378315031528473,0.14320331811904907,0.12659892439842224,0.29377612471580505,-0.18258394300937653,-0.2410215139389038,0.187587708234787,-0.14290785789489746,0.2145799696445465,-0.08389845490455627,0.20224878191947937,-0.2746996581554413,-0.17842063307762146,0.10779011249542236,0.07474386692047119,-0.09014153480529785,0.21074238419532776,0.24034884572029114,-0.25638750195503235,-0.18875090777873993,0.32373538613319397,-0.11930041015148163,-0.12534046173095703,-0.34209635853767395,-0.20246949791908264,0.08831894397735596,-0.046666622161865234,-0.2566394507884979,0.008293181657791138,-0.24150577187538147,-0.29995352029800415,-0.19468863308429718,-0.309434175491333,-0.2251209020614624,0.3534151017665863,0.06677737832069397,0.1089509129524231,-0.32975369691848755,-0.2322046011686325,-0.1176823079586029,0.05528554320335388,-0.31109917163848877,-0.15233662724494934,-0.21166129410266876,0.000979781150817871,-0.1315583437681198,-0.024499744176864624,-0.2395782768726349,-0.24267733097076416,-0.2062636762857437,-0.12102042138576508,-0.2790529131889343,0.2964438498020172,-0.07016763091087341,0.30419620871543884,0.11016088724136353,-0.29938793182373047,0.24467137455940247,-0.09727838635444641,-0.13552622497081757,-0.2934742271900177,-0.35148885846138,0.1011553704738617,-0.07723155617713928,0.13764649629592896,-0.2901483476161957,0.26248833537101746,-0.25952717661857605,-0.06104925274848938,0.07384657859802246,0.18252256512641907,0.2854273021221161,0.32207271456718445,-0.280340313911438,0.08897781372070312,-0.1520724892616272,-0.03874409198760986,-0.2646312117576599,0.32203713059425354,-0.2594906687736511,0.1889570653438568,0.12425264716148376,0.11488926410675049,-0.19114729762077332,0.3213628828525543,0.07769349217414856,0.0454811155796051,-0.3115706145763397,0.1484176218509674,-0.05304029583930969,-0.16197139024734497,0.30368348956108093,0.07882431149482727,-0.19561274349689484,-0.17894713580608368,-0.016884207725524902,0.19741055369377136,-0.09034484624862671,-0.2017286866903305,-0.12107183039188385,-0.2641308307647705,0.12608861923217773,0.27366456389427185,-0.3328494131565094,0.08211302757263184,0.18264278769493103,0.06410962343215942,-0.12590907514095306,0.18453440070152283,0.18579694628715515,0.13220325112342834,-0.06212690472602844,-0.09362137317657471,0.03782346844673157,-0.06245666742324829,-0.10535928606987,0.2259937822818756,0.3038436472415924,-0.03500086069107056,-0.07915949821472168,0.005159139633178711,-0.021110057830810547,0.084998220205307,0.09907755255699158,-0.32111725211143494,-0.1304745376110077,0.2977377474308014,0.1377284824848175,-0.017584890127182007,-0.21315936744213104,-0.21630576252937317,-0.31670141220092773,-0.11524511873722076,0.11939644813537598,0.22543326020240784,0.163234680891037,-0.31252139806747437,-0.21261373162269592,-0.05579662322998047,0.34200969338417053,0.051144152879714966,-0.09155997633934021,0.14627042412757874,-0.1346619576215744,-0.2288394272327423,0.25805410742759705,-0.16076135635375977,-0.07087570428848267,-0.35171642899513245,0.2366228997707367,0.26786431670188904,0.12885189056396484,-0.2465236485004425,-0.34893593192100525,-0.2871486246585846,0.26364484429359436,0.16974303126335144,0.29751673340797424,0.18521597981452942,0.08948159217834473,-0.0034622251987457275,-0.2688794732093811,-0.30291470885276794,-0.3306956887245178]},"out_proj_weight":{"shape":[8,8],"data":[0.1447313129901886,-0.17358338832855225,-0.07115352153778076,-0.2034718245267868,-0.0644257664680481,-0.2488432079553604,-0.2310173213481903,0.11727747321128845,-0.10507479310035706,0.21826377511024475,-0.11342301964759827,-0.25935518741607666,-0.062380582094192505,-0.1713840812444687,-0.10816667973995209,-0.3365812599658966,0.19780990481376648,-0.24614547193050385,0.17770221829414368,0.1604369580745697,0.2525900900363922,-0.27119386196136475,0.2542744576931,-0.16714292764663696,0.13119277358055115,0.3320271670818329,-0.049862295389175415,-0.0027341842651367188,-0.08139878511428833,-0.2952116131782532,0.16967126727104187,-0.3509787619113922,0.21948590874671936,0.2645375430583954,0.33435770869255066,-0.08339601755142212,-0.29049429297447205,0.07948949933052063,0.1953125298023224,-0.3518947660923004,-0.0802508294582367,-0.2119395136833191,-0.03092309832572937,-0.17402374744415283,-0.14452116191387177,-0.11223866045475006,-0.3359832167625427,0.29009321331977844,0.29639485478401184,-0.055461585521698,-0.04026338458061218,-0.1442921757698059,-0.3192809224128723,-0.3440585136413574,0.13140109181404114,-0.19411712884902954,-0.22729133069515228,-0.027585357427597046,-0.11773721873760223,-0.11438186466693878,0.011360079050064087,-0.0749930739402771,-0.12173283100128174,-0.1692834496498108]},"A":{"shape":[2],"data":[-1.0,-1.0]},"dt_raw":{"shape":[1,4,2],"data":[-0.42650002241134644,0.7125797867774963,-0.5161795616149902,0.11222483962774277,-0.03980274125933647,-0.04309152066707611,0.381733238697052,-0.8063433170318604]},"dt_bias":{"shape":[2],"data":[0.0,0.0]},"lam_raw":{"shape":[1,4,2],"data":[-0.8184410929679871,1.0168100595474243,-0.627271294593811,0.3611389398574829,-0.33177700638771057,0.42242512106895447,-0.6171436309814453,-0.12620232999324799]},"B_raw":{"shape":[1,4,4],"data":[0.8856775760650635,-0.2797427475452423,-0.4115511476993561,0.9120616912841797,0.2784843444824219,1.243574857711792,-0.46375930309295654,0.9575809836387634,0.2810257375240326,0.2782861292362213,-0.2684488594532013,1.0083081722259521,-0.573944628238678,-0.660860538482666,-0.5255879163742065,-0.5054629445075989]},"C_raw":{"shape":[1,4,4],"data":[0.3948841094970703,0.6365531086921692,0.6295329332351685,0.3959381878376007,-0.3933306336402893,0.20169466733932495,0.1221054419875145,-0.21725206077098846,0.6586548686027527,0.05972177907824516,0.6633779406547546,0.13895952701568604,0.5314082503318787,0.3848763108253479,-0.16570104658603668,0.022593677043914795]},"B_norm_weight":{"shape":[4],"data":[1.0,1.0,1.0,1.0]},"C_norm_weight":{"shape":[4],"data":[1.0,1.0,1.0,1.0]},"B_bias":{"shape":[2,4],"data":[1.0,1.0,1.0,1.0,1.0,1.0,1.0,1.0]},"C_bias":{"shape":[2,4],"data":[1.0,1.0,1.0,1.0,1.0,1.0,1.0,1.0]},"theta":{"shape":[1,4,2],"data":[-0.43476131558418274,0.7123958468437195,-1.1337138414382935,-0.7427321672439575,-0.44868066906929016,-0.2007502019405365,-0.5462324023246765,-0.04325815290212631]},"x":{"shape":[1,4,2,4],"data":[-0.7018338441848755,-0.2810353636741638,0.27155306935310364,1.2290730476379395,0.8954286575317383,-1.2096649408340454,0.4598119258880615,0.5746812224388123,0.7952145934104919,1.0545125007629395,0.9574414491653442,-0.47545740008354187,1.0306742191314697,1.3672438859939575,0.8738503456115723,0.8579344153404236,0.5453118085861206,0.35397931933403015,0.5452545285224915,0.22872287034988403,0.5092254877090454,-0.08067683130502701,0.10374560207128525,0.20600208640098572,-0.6644402146339417,0.6452536582946777,-0.5121903419494629,0.24625235795974731,0.48446643352508545,0.11761963367462158,0.32147660851478577,0.03945076838135719]},"D":{"shape":[2],"data":[0.0,0.0]},"z":{"shape":[1,4,8],"data":[-0.2971659302711487,0.3530133068561554,-0.2474215030670166,-0.6457491517066956,0.19837144017219543,-0.7237492203712463,-0.11936255544424057,0.13565531373023987,-1.2584832906723022,0.5496717095375061,-0.4103562831878662,1.2046362161636353,-0.18984097242355347,-0.09147986769676208,0.8498527407646179,0.5048322081565857,-0.6449635028839111,0.6837827563285828,-0.29636144638061523,0.059988684952259064,-0.23991066217422485,-0.1500663310289383,0.05431700497865677,0.6205291152000427,0.2814538776874542,-0.6283624172210693,0.3702000379562378,-0.15969789028167725,0.2263297438621521,-0.6211676597595215,0.5458956360816956,-0.35564926266670227]}},"activated":{"dt":{"shape":[1,4,2],"data":[0.5024646520614624,1.1116092205047607,0.46799924969673157,0.7508330941200256,0.6734438538551331,0.6718335151672363,0.9021192789077759,0.36913836002349854]},"lam":{"shape":[1,4,2],"data":[0.3060946762561798,0.7343508005142212,0.3481295108795166,0.5893160700798035,0.41780829429626465,0.6040633916854858,0.3504313826560974,0.46849122643470764]}},"expected":{"alpha":{"shape":[1,4,2],"data":[0.6050376296043396,0.32902905344963074,0.6262540221214294,0.471973180770874,0.5099493861198425,0.5107712149620056,0.4057089388370514,0.6913297772407532]},"beta":{"shape":[1,4,2],"data":[0.2109541893005371,0.09716165065765381,0.19105438888072968,0.14553533494472504,0.1999375969171524,0.1358669251203537,0.23774074018001556,0.13563910126686096]},"gamma":{"shape":[1,4,2],"data":[0.15380175411701202,0.8163111209869385,0.16292434930801392,0.4424780011177063,0.2813704311847687,0.4058300256729126,0.3161309063434601,0.17293807864189148]},"B_qkn":{"shape":[1,4,4],"data":[1.2974430322647095,-0.4097995460033417,-0.602887749671936,1.336093544960022,0.3354925215244293,1.4981454610824585,-0.5586948394775391,1.1536061763763428,0.5036802887916565,0.498770147562027,-0.4811388850212097,1.8071831464767456,-1.0075701475143433,-1.160152554512024,-0.9226790070533752,-0.8873492479324341]},"C_qkn":{"shape":[1,4,4],"data":[0.7481831312179565,1.2060710191726685,1.192770004272461,0.7501803040504456,-1.5501266717910767,0.7948840856552124,0.4812208414077759,-0.8561962246894836,1.3910315036773682,0.12612807750701904,1.4010062217712402,0.2934724688529968,1.5695440769195557,1.136753797531128,-0.48940733075141907,0.06673169136047363]},"B_biased":{"shape":[1,4,2,4],"data":[2.29744291305542,0.5902004241943359,0.39711225032806396,2.3360934257507324,2.29744291305542,0.5902004241943359,0.39711225032806396,2.3360934257507324,1.335492491722107,2.498145580291748,0.44130516052246094,2.1536061763763428,1.335492491722107,2.498145580291748,0.44130516052246094,2.1536061763763428,1.5036802291870117,1.4987701177597046,0.5188611149787903,2.807183265686035,1.5036802291870117,1.4987701177597046,0.5188611149787903,2.807183265686035,-0.007570147514343262,-0.16015255451202393,0.07732099294662476,0.11265075206756592,-0.007570147514343262,-0.16015255451202393,0.07732099294662476,0.11265075206756592]},"C_biased":{"shape":[1,4,2,4],"data":[1.7481831312179565,2.206070899963379,2.192770004272461,1.7501802444458008,1.7481831312179565,2.206070899963379,2.192770004272461,1.7501802444458008,-0.5501266717910767,1.7948840856552124,1.4812208414077759,0.14380377531051636,-0.5501266717910767,1.7948840856552124,1.4812208414077759,0.14380377531051636,2.391031503677368,1.126128077507019,2.4010062217712402,1.2934725284576416,2.391031503677368,1.126128077507019,2.4010062217712402,1.2934725284576416,2.5695440769195557,2.136753797531128,0.5105926990509033,1.0667316913604736,2.5695440769195557,2.136753797531128,0.5105926990509033,1.0667316913604736]},"cum_angles":{"shape":[1,4,2,2],"data":[0.21845220029354095,-0.3579537272453308,0.48328468203544617,-0.7919058203697205,0.7490294575691223,-0.010355621576309204,1.3345144987106323,-0.2342379093170166,1.051190733909607,0.12483836710453033,1.6359531879425049,-0.09936720132827759,1.5439574718475342,0.16386237740516663,1.8375885486602783,-0.08339895308017731]},"B_roped":{"shape":[1,4,2,4],"data":[2.1149344444274902,1.074073076248169,1.1904115676879883,2.0488903522491455,1.7600641250610352,1.5902059078216553,1.9415497779846191,1.3584606647491455,-0.7230100631713867,2.7388916015625,0.4635830223560333,2.1489205360412598,-2.11611008644104,1.883175253868103,0.9291095733642578,1.9923667907714844,-0.5543209314346313,2.0494132041931152,0.16528856754302979,2.849942922592163,-1.593495488166809,1.402903437614441,0.7947847843170166,2.7418627738952637,0.15989172458648682,-0.011865216307342052,0.057908520102500916,0.12375512719154358,0.15648239850997925,0.03492004796862602,0.08643631637096405,0.10581819713115692]},"C_roped":{"shape":[1,4,2,4],"data":[1.2285387516021729,2.532505989074707,2.666973352432251,0.8709909319877625,0.5228301286697388,2.765780448913574,2.7859911918640137,-0.33109545707702637,-1.625072717666626,0.9398865699768066,1.4826304912567139,0.12845736742019653,-1.8737921714782715,-0.11467808485031128,1.4741480350494385,-0.20391727983951569,0.20974141359329224,2.6346166133880615,2.2212653160095215,1.5823662281036377,-1.279420256614685,2.3126347064971924,2.517479658126831,1.0489031076431274,-2.067028760910034,2.625959873199463,0.3297370672225952,1.135735273361206,-2.738589286804199,1.9153069257736206,0.5976792573928833,1.0204905271530151]},"y_scan":{"shape":[1,4,2,4],"data":[-1.1094125509262085,-0.44424211978912354,0.42925316095352173,1.9428375959396362,7.5124945640563965,-10.148882865905762,3.857743740081787,4.821477890014648,0.6910881996154785,0.841891348361969,0.7039558291435242,-0.5060784816741943,1.723654866218567,3.425818681716919,1.6036518812179565,1.515877366065979,3.203765392303467,4.06518030166626,5.037940502166748,0.7569162249565125,8.264250755310059,2.8149161338806152,5.026283264160156,5.62272834777832,2.90781569480896,2.5281717777252197,3.175632953643799,0.24409973621368408,5.392490386962891,3.575436592102051,3.122405529022217,3.5405266284942627]},"ssm_state":{"shape":[1,2,4,4],"data":[-0.29422417283058167,0.6010286808013916,0.012210710905492306,0.6316105127334595,-0.15931561589241028,0.5665496587753296,0.06864307075738907,0.6062071919441223,-0.17758823931217194,0.7135946154594421,0.09252230077981949,0.7961134314537048,0.1618516445159912,0.09298685193061829,0.07949145138263702,0.27141955494880676,-0.5748465061187744,1.0527210235595703,0.7411175966262817,1.3317002058029175,-1.066188097000122,0.23718422651290894,-0.14734598994255066,0.2835603356361389,-0.3710249066352844,0.6112575531005859,0.4095724821090698,0.6769118905067444,-0.4001540243625641,0.6960008144378662,0.4772855341434479,0.8097580671310425]},"last_Bx":{"shape":[1,2,4,4],"data":[-0.10623849183320999,0.007883726619184017,-0.03847675025463104,-0.08222788572311401,0.1031707227230072,-0.00765607412904501,0.037365686148405075,0.07985344529151917,-0.08189499378204346,0.006077249068766832,-0.029660183936357498,-0.06338617950677872,0.03937371447682381,-0.002921837382018566,0.014260109513998032,0.030474992468953133,0.07581046968698502,0.01691759191453457,0.04187549278140068,0.05126536637544632,0.018405402079224586,0.004107283428311348,0.010166607797145844,0.012446297332644463,0.050305429846048355,0.011225978843867779,0.027787253260612488,0.034018076956272125,0.006173350848257542,0.0013776227133348584,0.0034099791664630175,0.004174609202891588]},"y_gated_pre_outproj":{"shape":[1,4,8],"data":[0.14052608609199524,-0.09210991859436035,-0.046567101031541824,-0.43151238560676575,0.81879723072052,2.398721694946289,-0.21651063859462738,0.3491772413253784,-0.19241322576999664,0.2934197783470154,-0.1152101382613182,-0.46902596950531006,-0.14812667667865753,-0.1495344191789627,0.9547383785247803,0.4772140383720398,-0.7110702991485596,1.8473399877548218,-0.636707603931427,0.023383967578411102,-0.8729914426803589,-0.19539383053779602,0.14021271467208862,2.269075632095337,0.46641746163368225,-0.5526480674743652,0.6953875422477722,-0.01793806254863739,0.6790050268173218,-0.7762558460235596,1.0792648792266846,-0.5188010931015015]},"y_final":{"shape":[1,4,8],"data":[-0.4312475621700287,-0.473960280418396,-0.5841498970985413,-0.9427142143249512,-0.18545031547546387,-0.12874716520309448,-1.0720593929290771,-0.17789898812770844,-0.0929906964302063,-0.010051637887954712,-0.039867252111434937,0.1299084722995758,0.08566882461309433,-0.10571016371250153,0.13057255744934082,-0.084623783826828,-0.04445018619298935,-0.1468740850687027,-1.215890645980835,-0.09210075438022614,-0.41524064540863037,0.4403899908065796,-0.3670380413532257,-0.21349945664405823,-0.04314565658569336,-0.09529300034046173,1.092157006263733,0.38216981291770935,0.3245861232280731,-0.46280455589294434,0.43629300594329834,-0.1482190191745758]}}}