{"config":{"d_model":8,"expand":1,"d_inner":8,"headdim":4,"nheads":2,"d_state":4,"num_bc_heads":1,"mimo_rank":1,"effective_rank":1,"is_mimo":false,"rope_fraction":1.0,"split_tensor_size":4,"num_rope_angles":2,"rotary_dim_divisor":2,"A_floor":0.0001,"chunk_size":2,"batch":1,"seqlen":4,"d_in_proj":32,"seed":42,"reference_sha":"7438488","reference_repo":"state-spaces/mamba"},"inputs":{"u":{"shape":[1,4,8],"data":[0.4334380030632019,-0.7171905636787415,1.055369257926941,-1.4533969163894653,0.46515071392059326,0.37139150500297546,-0.004656785633414984,0.07954943925142288,0.3781784772872925,0.7051141262054443,-1.7236974239349365,-0.8434810638427734,0.4351435601711273,0.26588720083236694,-0.5870985388755798,0.0826888456940651,0.8853808045387268,0.1824439913034439,0.7863810062408447,-0.057920295745134354,0.5666652917861938,-0.7097623348236084,-0.4875054359436035,0.050095997750759125,0.6084084510803223,1.6308681964874268,-0.08472306281328201,1.0844124555587769,0.9477656483650208,-0.676629364490509,-0.5730168223381042,-0.3303174376487732]},"in_proj_weight":{"shape":[32,8],"data":[0.27030518651008606,0.29345211386680603,-0.08282783627510071,0.32477810978889465,-0.07746481895446777,0.07134377956390381,-0.17212924361228943,0.2076357901096344,0.31167247891426086,-0.2593767046928406,0.30730727314949036,0.06617081165313721,0.2612083852291107,0.04788193106651306,0.1704792082309723,-0.049918562173843384,0.2725493013858795,0.05225834250450134,-0.16505283117294312,0.09012016654014587,-0.16289499402046204,-0.041462212800979614,-0.14359864592552185,0.2345370352268219,-0.2790845036506653,-0.16299176216125488,-0.09983453154563904,-0.21258191764354706,0.033369481563568115,-0.34919729828834534,0.31929728388786316,-0.30033236742019653,0.2729528844356537,0.05883803963661194,-0.11480037868022919,0.21847829222679138,0.05510157346725464,0.28565821051597595,0.038650333881378174,-0.11150126159191132,0.09499400854110718,-0.09587639570236206,0.14879563450813293,0.3156602680683136,0.20437493920326233,-0.15456382930278778,0.20409390330314636,0.06325995922088623,0.1795468032360077,-0.21549257636070251,-0.3499854803085327,-0.1365990787744522,-0.2711835205554962,0.29010429978370667,0.10183444619178772,0.1464465856552124,0.11181521415710449,-0.006150394678115845,0.27669379115104675,-0.2512044906616211,0.02226102352142334,-0.2413143813610077,0.10901889204978943,-0.12175752222537994,0.1083345115184784,-0.07365983724594116,0.29323431849479675,-0.20955176651477814,-0.2108585238456726,-0.21087126433849335,0.31800106167793274,0.11782205104827881,0.3402070105075836,-0.29177922010421753,-0.3506811559200287,-0.27660736441612244,-0.2378315031528473,0.14320331811904907,0.12659892439842224,0.29377612471580505,-0.18258394300937653,-0.2410215139389038,0.187587708234787,-0.14290785789489746,0.2145799696445465,-0.08389845490455627,0.20224878191947937,-0.2746996581554413,-0.17842063307762146,0.10779011249542236,0.07474386692047119,-0.09014153480529785,0.21074238419532776,0.24034884572029114,-0.25638750195503235,-0.18875090777873993,0.32373538613319397,-0.11930041015148163,-0.12534046173095703,-0.34209635853767395,-0.20246949791908264,0.08831894397735596,-0.046666622161865234,-0.2566394507884979,0.008293181657791138,-0.24150577187538147,-0.29995352029800415,-0.19468863308429718,-0.309434175491333,-0.2251209020614624,0.3534151017665863,0.06677737832069397,0.1089509129524231,-0.32975369691848755,-0.2322046011686325,-0.1176823079586029,0.05528554320335388,-0.31109917163848877,-0.15233662724494934,-0.21166129410266876,0.000979781150817871,-0.1315583437681198,-0.024499744176864624,-0.2395782768726349,-0.24267733097076416,-0.2062636762857437,-0.12102042138576508,-0.2790529131889343,0.2964438498020172,-0.07016763091087341,0.30419620871543884,0.11016088724136353,-0.29938793182373047,0.24467137455940247,-0.09727838635444641,-0.13552622497081757,-0.2934742271900177,-0.35148885846138,0.1011553704738617,-0.07723155617713928,0.13764649629592896,-0.2901483476161957,0.26248833537101746,-0.25952717661857605,-0.06104925274848938,0.07384657859802246,0.18252256512641907,0.2854273021221161,0.32207271456718445,-0.280340313911438,0.08897781372070312,-0.1520724892616272,-0.03874409198760986,-0.2646312117576599,0.32203713059425354,-0.2594906687736511,0.1889570653438568,0.12425264716148376,0.11488926410675049,-0.19114729762077332,0.3213628828525543,0.07769349217414856,0.0454811155796051,-0.3115706145763397,0.1484176218509674,-0.05304029583930969,-0.16197139024734497,0.30368348956108093,0.07882431149482727,-0.19561274349689484,-0.17894713580608368,-0.016884207725524902,0.19741055369377136,-0.09034484624862671,-0.2017286866903305,-0.12107183039188385,-0.2641308307647705,0.12608861923217773,0.27366456389427185,-0.3328494131565094,0.08211302757263184,0.18264278769493103,0.06410962343215942,-0.12590907514095306,0.18453440070152283,0.18579694628715515,0.13220325112342834,-0.06212690472602844,-0.09362137317657471,0.03782346844673157,-0.06245666742324829,-0.10535928606987,0.2259937822818756,0.3038436472415924,-0.03500086069107056,-0.07915949821472168,0.005159139633178711,-0.021110057830810547,0.084998220205307,0.09907755255699158,-0.32111725211143494,-0.1304745376110077,0.2977377474308014,0.1377284824848175,-0.017584890127182007,-0.21315936744213104,-0.21630576252937317,-0.31670141220092773,-0.11524511873722076,0.11939644813537598,0.22543326020240784,0.163234680891037,-0.31252139806747437,-0.21261373162269592,-0.05579662322998047,0.34200969338417053,0.051144152879714966,-0.09155997633934021,0.14627042412757874,-0.1346619576215744,-0.2288394272327423,0.25805410742759705,-0.16076135635375977,-0.07087570428848267,-0.35171642899513245,0.2366228997707367,0.26786431670188904,0.12885189056396484,-0.2465236485004425,-0.34893593192100525,-0.2871486246585846,0.26364484429359436,0.16974303126335144,0.29751673340797424,0.18521597981452942,0.08948159217834473,-0.0034622251987457275,-0.2688794732093811,-0.30291470885276794,-0.3306956887245178,0.1447313129901886,-0.17358338832855225,-0.07115352153778076,-0.2034718245267868,-0.0644257664680481,-0.2488432079553604,-0.2310173213481903,0.11727747321128845,-0.10507479310035706,0.21826377511024475,-0.11342301964759827,-0.25935518741607666,-0.062380582094192505,-0.1713840812444687,-0.10816667973995209,-0.3365812599658966]},"out_proj_weight":{"shape":[8,8],"data":[0.19780990481376648,-0.24614547193050385,0.17770221829414368,0.1604369580745697,0.2525900900363922,-0.27119386196136475,0.2542744576931,-0.16714292764663696,0.13119277358055115,0.3320271670818329,-0.049862295389175415,-0.0027341842651367188,-0.08139878511428833,-0.2952116131782532,0.16967126727104187,-0.3509787619113922,0.21948590874671936,0.2645375430583954,0.33435770869255066,-0.08339601755142212,-0.29049429297447205,0.07948949933052063,0.1953125298023224,-0.3518947660923004,-0.0802508294582367,-0.2119395136833191,-0.03092309832572937,-0.17402374744415283,-0.14452116191387177,-0.11223866045475006,-0.3359832167625427,0.29009321331977844,0.29639485478401184,-0.055461585521698,-0.04026338458061218,-0.1442921757698059,-0.3192809224128723,-0.3440585136413574,0.13140109181404114,-0.19411712884902954,-0.22729133069515228,-0.027585357427597046,-0.11773721873760223,-0.11438186466693878,0.011360079050064087,-0.0749930739402771,-0.12173283100128174,-0.1692834496498108,-0.28773143887519836,0.2964570224285126,-0.1414875090122223,0.09368440508842468,-0.122670978307724,0.02873021364212036,0.32961800694465637,0.16289004683494568,-0.3063892424106598,0.14032632112503052,0.33560803532600403,0.09301400184631348,0.23703089356422424,0.34856387972831726,-0.05417463183403015,0.07338157296180725]},"dt_bias":{"shape":[2],"data":[0.0,0.0]},"D":{"shape":[2],"data":[0.0,0.0]},"B_bias":{"shape":[2,1,4],"data":[0.0,0.0,0.0,0.0,0.0,0.0,0.0,0.0]},"C_bias":{"shape":[2,1,4],"data":[0.0,0.0,0.0,0.0,0.0,0.0,0.0,0.0]},"B_norm_weight":{"shape":[4],"data":[1.0,1.0,1.0,1.0]},"C_norm_weight":{"shape":[4],"data":[1.0,1.0,1.0,1.0]}},"post_split_raw":{"z_raw":{"shape":[1,4,8],"data":[-0.6449635028839111,0.6837827563285828,-0.29636144638061523,0.059988684952259064,-0.23991066217422485,-0.1500663310289383,0.05431700497865677,0.6205291152000427,0.2814538776874542,-0.6283624172210693,0.3702000379562378,-0.15969789028167725,0.2263297438621521,-0.6211676597595215,0.5458956360816956,-0.35564926266670227,0.20869800448417664,0.49487778544425964,0.1347058117389679,-0.2469763159751892,-0.04648258909583092,0.29452866315841675,-0.5495419502258301,0.45465710759162903,0.910603940486908,-0.053697068244218826,0.241239994764328,-0.47353774309158325,0.3822929263114929,0.39156973361968994,-0.9207183718681335,-0.07572518289089203]},"x_raw":{"shape":[1,4,8],"data":[0.5453118085861206,0.35397931933403015,0.5452545285224915,0.22872287034988403,0.5092254877090454,-0.08067683130502701,0.10374560207128525,0.20600208640098572,-0.6644402146339417,0.6452536582946777,-0.5121903419494629,0.24625235795974731,0.48446643352508545,0.11761963367462158,0.32147660851478577,0.03945076838135719,0.20626714825630188,-0.2951802611351013,0.018947690725326538,-0.0099418880417943,0.01858815923333168,-0.44582971930503845,0.17631278932094574,0.02537580579519272,-0.584603488445282,-1.031001091003418,-0.44003817439079285,0.20952507853507996,-0.4980938136577606,-0.9400463700294495,-0.1593378186225891,-0.4005986154079437]},"B_raw":{"shape":[1,4,4],"data":[0.2810257375240326,0.2782861292362213,-0.2684488594532013,1.0083081722259521,-0.573944628238678,-0.660860538482666,-0.5255879163742065,-0.5054629445075989,0.1798207014799118,-0.09697344154119492,0.416908323764801,0.13899070024490356,-0.1891804188489914,-0.5820095539093018,0.8715305328369141,-0.6715099811553955]},"C_raw":{"shape":[1,4,4],"data":[0.6586548686027527,0.05972177907824516,0.6633779406547546,0.13895952701568604,0.5314082503318787,0.3848763108253479,-0.16570104658603668,0.022593677043914795,0.5684393048286438,0.16262616217136383,-0.09703259915113449,0.2501135468482971,0.14955753087997437,0.1296052783727646,-0.38010072708129883,0.2929779291152954]},"dd_dt":{"shape":[1,4,2],"data":[-0.03980274125933647,-0.04309152066707611,0.381733238697052,-0.8063433170318604,0.2140188366174698,0.14895516633987427,0.48789021372795105,0.0720943808555603]},"dd_A":{"shape":[1,4,2],"data":[-0.33177700638771057,0.42242512106895447,-0.6171436309814453,-0.12620232999324799,0.105713851749897,-0.08660958707332611,0.04918238893151283,-0.552590012550354]},"trap_raw":{"shape":[1,4,2],"data":[-0.44868066906929016,-0.2007502019405365,-0.5462324023246765,-0.04325815290212631,0.19610698521137238,0.6650195717811584,0.3688559830188751,1.1312867403030396]},"angles_raw":{"shape":[1,4,2],"data":[0.2958756983280182,-0.06377538293600082,0.2777387201786041,0.49139168858528137,0.31091347336769104,-0.005218538921326399,-0.20870278775691986,0.25039392709732056]}},"post_derivation":{"_A":{"shape":[1,4,2],"data":[-0.5409555435180664,-0.9265012145042419,-0.43144676089286804,-0.6320355534553528,-0.7474003434181213,-0.6507797241210938,-0.7180407047271729,-0.45454567670822144]},"DT":{"shape":[1,4,2],"data":[0.6734438538551331,0.6718335151672363,0.9021192789077759,0.36913836002349854,0.8058712482452393,0.7703956365585327,0.9665563702583313,0.7298439145088196]},"ADT":{"shape":[1,4,2],"data":[-0.3643031716346741,-0.6224545836448669,-0.38921645283699036,-0.2333085685968399,-0.602308452129364,-0.5013578534126282,-0.6940268278121948,-0.3317473828792572]},"trap":{"shape":[1,4,2],"data":[0.38967445492744446,0.44998031854629517,0.3667389452457428,0.4891871213912964,0.5488702654838562,0.6603870987892151,0.5911825299263,0.7560762763023376]},"gamma":{"shape":[1,4,2],"data":[0.26242387294769287,0.30231186747550964,0.3308422863483429,0.18057772517204285,0.44231876730918884,0.5087593197822571,0.5714112520217896,0.5518176555633545]},"shifted_gamma":{"shape":[1,4,2],"data":[0.5712770223617554,0.1885606348514557,0.3635524809360504,0.26163628697395325,0.39514511823654175,0.1780262440443039,0.0,0.0]},"scale":{"shape":[1,4,2],"data":[0.8337008953094482,0.49087250232696533,0.6943947672843933,0.4422140121459961,0.8374638557434082,0.6867855787277222,0.5714112520217896,0.5518176555633545]},"B_post_norm":{"shape":[1,4,1,1,4],"data":[0.5036803483963013,0.49877017736434937,-0.4811389148235321,1.8071832656860352,-1.0075701475143433,-1.160152554512024,-0.9226790070533752,-0.8873492479324341,0.7420251965522766,-0.40015822649002075,1.7203607559204102,0.5735412836074829,-0.30052727460861206,-0.924565851688385,1.3844915628433228,-1.0667439699172974]},"C_post_norm":{"shape":[1,4,1,1,4],"data":[1.3910315036773682,0.12612807750701904,1.4010062217712402,0.2934724688529968,1.5695440769195557,1.136753797531128,-0.48940733075141907,0.06673169136047363,1.7509459257125854,0.5009322762489319,-0.2988865077495575,0.7704169750213623,0.5761621594429016,0.49929720163345337,-1.4643170833587646,1.1286813020706177]},"B_biased":{"shape":[1,4,1,2,4],"data":[0.5036803483963013,0.49877017736434937,-0.4811389148235321,1.8071832656860352,0.5036803483963013,0.49877017736434937,-0.4811389148235321,1.8071832656860352,-1.0075701475143433,-1.160152554512024,-0.9226790070533752,-0.8873492479324341,-1.0075701475143433,-1.160152554512024,-0.9226790070533752,-0.8873492479324341,0.7420251965522766,-0.40015822649002075,1.7203607559204102,0.5735412836074829,0.7420251965522766,-0.40015822649002075,1.7203607559204102,0.5735412836074829,-0.30052727460861206,-0.924565851688385,1.3844915628433228,-1.0667439699172974,-0.30052727460861206,-0.924565851688385,1.3844915628433228,-1.0667439699172974]},"C_biased":{"shape":[1,4,1,2,4],"data":[1.3910315036773682,0.12612807750701904,1.4010062217712402,0.2934724688529968,1.3910315036773682,0.12612807750701904,1.4010062217712402,0.2934724688529968,1.5695440769195557,1.136753797531128,-0.48940733075141907,0.06673169136047363,1.5695440769195557,1.136753797531128,-0.48940733075141907,0.06673169136047363,1.7509459257125854,0.5009322762489319,-0.2988865077495575,0.7704169750213623,1.7509459257125854,0.5009322762489319,-0.2988865077495575,0.7704169750213623,0.5761621594429016,0.49929720163345337,-1.4643170833587646,1.1286813020706177,0.5761621594429016,0.49929720163345337,-1.4643170833587646,1.1286813020706177]},"cum_angles":{"shape":[1,4,2,2],"data":[0.6083313226699829,6.148439407348633,0.6068766713142395,6.148761749267578,1.3758342266082764,1.1556732654571533,0.920931339263916,0.3936030864715576,2.1385600566864014,1.1424615383148193,1.6500808000564575,0.3809729218482971,1.5138721466064453,1.8872877359390259,1.1783807277679443,0.9433891177177429]},"B_post_rope":{"shape":[1,4,1,2,4],"data":[0.1282748579978943,0.6971449851989746,-0.23400333523750305,1.8554375171661377,0.12928882241249084,0.6969576478004456,-0.23460134863853455,1.855362057685852,0.9429775476455688,-1.2132374048233032,0.43986496329307556,-1.2021830081939697,0.31401389837265015,-1.504176378250122,-0.5118098855018616,-1.1733609437942505,-0.06164690852165222,0.8407898545265198,0.19283640384674072,1.8031651973724365,0.3401317000389099,0.7713872790336609,1.3837602138519287,1.1720913648605347,0.9059702754020691,-0.3526422083377838,0.5828611850738525,1.6477354764938354,0.7393596172332764,-0.6312574744224548,1.6763477325439453,0.4945887327194214]},"C_post_rope":{"shape":[1,4,1,2,4],"data":[1.0694022178649902,0.8984740972518921,1.4277315139770508,0.10260319709777832,1.0707080364227295,0.8969175219535828,1.4276982545852661,0.10306340456008911,-0.8111512660980225,1.7600317001342773,-0.2584431767463684,-0.4209272861480713,0.044653892517089844,1.9374425411224365,-0.47757676243782043,-0.12606780230998993,-1.3639065027236938,1.2068569660186768,-0.8249609470367432,0.048113077878952026,-0.6380360722541809,1.7057709693908691,-0.5639166831970215,0.6040475368499756,-0.4657086133956909,0.6036356687545776,-0.6168779134750366,-1.7428733110427856,-0.24100781977176666,0.7233089208602905,-1.7733505964279175,-0.5228514075279236]},"qk_pre_dot_per_rank":{"shape":[1,4,1,2],"data":[0.6198241710662842,0.6198241710662842,-2.5078823566436768,-2.5078823566436768,1.0264670848846436,1.0264670848846436,-3.8661341667175293,-3.8661341667175293]},"qk_pre_dot_sum":{"shape":[1,4,2],"data":[0.6198241710662842,0.6198241710662842,-2.5078823566436768,-2.5078823566436768,1.0264670848846436,1.0264670848846436,-3.8661341667175293,-3.8661341667175293]}},"ssm_state":{"ssm_state_in":{"shape":[1,2,4,4],"data":[0.0,0.0,0.0,0.0,0.0,0.0,0.0,0.0,0.0,0.0,0.0,0.0,0.0,0.0,0.0,0.0,0.0,0.0,0.0,0.0,0.0,0.0,0.0,0.0,0.0,0.0,0.0,0.0,0.0,0.0,0.0,0.0]},"ssm_state_out":{"shape":[1,2,4,4],"data":[-0.4161566197872162,0.4022126793861389,-0.25329339504241943,-0.08675920963287354,-0.4035305976867676,-0.006642550230026245,-0.32608214020729065,-1.2392528057098389,-0.3092185854911804,0.27210062742233276,-0.20753534138202667,-0.1267373263835907,0.1573631316423416,-0.07782533764839172,0.08128459751605988,0.19912071526050568,-0.15973317623138428,0.10046281665563583,-0.5159292221069336,-0.07482580840587616,-0.45293521881103516,0.11443755030632019,-1.1820236444473267,-0.5659415125846863,-0.013778723776340485,0.04180283471941948,-0.06288345158100128,0.01838543638586998,-0.15230487287044525,0.16204608976840973,-0.3653096854686737,-0.03898607939481735]}},"outputs":{"y_pre_outproj":{"shape":[1,4,8],"data":[-0.08222902566194534,0.10928821563720703,-0.046818193048238754,0.004800742492079735,-0.02644595503807068,0.0027531941886991262,0.0014228292275220156,0.04087107628583908,0.2939123511314392,0.34507328271865845,0.31551873683929443,0.0427076518535614,-0.06451570242643356,0.04828820377588272,-0.15635065734386444,-0.005453535821288824,0.14193400740623474,-0.3264627158641815,0.0576806366443634,0.02630366012454033,0.0024465001188218594,-0.11686024069786072,7.295869727386162e-05,0.031126396730542183,1.3218234777450562,-0.1260034590959549,0.2201138585805893,0.17815764248371124,0.483541339635849,1.0722585916519165,-0.12466215342283249,-0.061083853244781494]},"y_final":{"shape":[1,4,8],"data":[-0.06461215019226074,0.015056563541293144,-0.011394836008548737,-0.0010598618537187576,-0.029491595923900604,0.013039417564868927,0.07358281314373016,0.02287733368575573,-0.0321151427924633,0.10366573929786682,0.2516906261444092,-0.059057094156742096,0.03360820934176445,-0.10275396704673767,-0.06603212654590607,0.07784367352724075,0.15002906322479248,-0.06933475285768509,-0.05905560404062271,0.07320660352706909,0.08744987845420837,-0.02954116463661194,-0.14188118278980255,-0.10536687821149826,0.17004187405109406,-0.23550067842006683,0.2574424147605896,-0.28324902057647705,-0.1636277735233307,-0.3926596939563751,-0.5116887092590332,0.15840497612953186]}}}