{"config":{"d_model":8,"n_layer":1,"vocab_size":32,"nheads":2,"headdim":4,"d_state":4,"d_inner":8,"chunk_size":2,"use_mimo":true,"mimo_rank":2,"bc_dim":8,"batch":1,"seqlen":4},"inputs":{"u":{"shape":[1,4,8],"data":[-0.21844321489334106,0.16629981994628906,2.1441681385040283,1.7045671939849854,0.3459012508392334,0.6424751281738281,-0.20395424962043762,0.6853673458099365,-0.13968797028064728,-1.1807502508163452,-1.282929539680481,0.448485791683197,-0.590737521648407,0.8540631532669067,-0.4900680184364319,-0.35945725440979004,0.6663737893104553,-0.07426456362009048,-0.20960482954978943,0.16632132232189178,1.4703037738800049,-0.9390866756439209,-0.6013189554214478,-0.09964022785425186,-0.9851518273353577,-2.488459348678589,-0.33131900429725647,0.8435799479484558,0.9874473810195923,-0.33197471499443054,-0.8076189756393433,0.824364185333252]},"in_proj_weight":{"shape":[38,8],"data":[0.27030518651008606,0.29345211386680603,-0.08282783627510071,0.32477810978889465,-0.07746481895446777,0.07134377956390381,-0.17212924361228943,0.2076357901096344,0.31167247891426086,-0.2593767046928406,0.30730727314949036,0.06617081165313721,0.2612083852291107,0.04788193106651306,0.1704792082309723,-0.049918562173843384,0.2725493013858795,0.05225834250450134,-0.16505283117294312,0.09012016654014587,-0.16289499402046204,-0.041462212800979614,-0.14359864592552185,0.2345370352268219,-0.2790845036506653,-0.16299176216125488,-0.09983453154563904,-0.21258191764354706,0.033369481563568115,-0.34919729828834534,0.31929728388786316,-0.30033236742019653,0.2729528844356537,0.05883803963661194,-0.11480037868022919,0.21847829222679138,0.05510157346725464,0.28565821051597595,0.038650333881378174,-0.11150126159191132,0.09499400854110718,-0.09587639570236206,0.14879563450813293,0.3156602680683136,0.20437493920326233,-0.15456382930278778,0.20409390330314636,0.06325995922088623,0.1795468032360077,-0.21549257636070251,-0.3499854803085327,-0.1365990787744522,-0.2711835205554962,0.29010429978370667,0.10183444619178772,0.1464465856552124,0.11181521415710449,-0.006150394678115845,0.27669379115104675,-0.2512044906616211,0.02226102352142334,-0.2413143813610077,0.10901889204978943,-0.12175752222537994,0.1083345115184784,-0.07365983724594116,0.29323431849479675,-0.20955176651477814,-0.2108585238456726,-0.21087126433849335,0.31800106167793274,0.11782205104827881,0.3402070105075836,-0.29177922010421753,-0.3506811559200287,-0.27660736441612244,-0.2378315031528473,0.14320331811904907,0.12659892439842224,0.29377612471580505,-0.18258394300937653,-0.2410215139389038,0.187587708234787,-0.14290785789489746,0.2145799696445465,-0.08389845490455627,0.20224878191947937,-0.2746996581554413,-0.17842063307762146,0.10779011249542236,0.07474386692047119,-0.09014153480529785,0.21074238419532776,0.24034884572029114,-0.25638750195503235,-0.18875090777873993,0.32373538613319397,-0.11930041015148163,-0.12534046173095703,-0.34209635853767395,-0.20246949791908264,0.08831894397735596,-0.046666622161865234,-0.2566394507884979,0.008293181657791138,-0.24150577187538147,-0.29995352029800415,-0.19468863308429718,-0.309434175491333,-0.2251209020614624,0.3534151017665863,0.06677737832069397,0.1089509129524231,-0.32975369691848755,-0.2322046011686325,-0.1176823079586029,0.05528554320335388,-0.31109917163848877,-0.15233662724494934,-0.21166129410266876,0.000979781150817871,-0.1315583437681198,-0.024499744176864624,-0.2395782768726349,-0.24267733097076416,-0.2062636762857437,-0.12102042138576508,-0.2790529131889343,0.2964438498020172,-0.07016763091087341,0.30419620871543884,0.11016088724136353,-0.29938793182373047,0.24467137455940247,-0.09727838635444641,-0.13552622497081757,-0.2934742271900177,-0.35148885846138,0.1011553704738617,-0.07723155617713928,0.13764649629592896,-0.2901483476161957,0.26248833537101746,-0.25952717661857605,-0.06104925274848938,0.07384657859802246,0.18252256512641907,0.2854273021221161,0.32207271456718445,-0.280340313911438,0.08897781372070312,-0.1520724892616272,-0.03874409198760986,-0.2646312117576599,0.32203713059425354,-0.2594906687736511,0.1889570653438568,0.12425264716148376,0.11488926410675049,-0.19114729762077332,0.3213628828525543,0.07769349217414856,0.0454811155796051,-0.3115706145763397,0.1484176218509674,-0.05304029583930969,-0.16197139024734497,0.30368348956108093,0.07882431149482727,-0.19561274349689484,-0.17894713580608368,-0.016884207725524902,0.19741055369377136,-0.09034484624862671,-0.2017286866903305,-0.12107183039188385,-0.2641308307647705,0.12608861923217773,0.27366456389427185,-0.3328494131565094,0.08211302757263184,0.18264278769493103,0.06410962343215942,-0.12590907514095306,0.18453440070152283,0.18579694628715515,0.13220325112342834,-0.06212690472602844,-0.09362137317657471,0.03782346844673157,-0.06245666742324829,-0.10535928606987,0.2259937822818756,0.3038436472415924,-0.03500086069107056,-0.07915949821472168,0.005159139633178711,-0.021110057830810547,0.084998220205307,0.09907755255699158,-0.32111725211143494,-0.1304745376110077,0.2977377474308014,0.1377284824848175,-0.017584890127182007,-0.21315936744213104,-0.21630576252937317,-0.31670141220092773,-0.11524511873722076,0.11939644813537598,0.22543326020240784,0.163234680891037,-0.31252139806747437,-0.21261373162269592,-0.05579662322998047,0.34200969338417053,0.051144152879714966,-0.09155997633934021,0.14627042412757874,-0.1346619576215744,-0.2288394272327423,0.25805410742759705,-0.16076135635375977,-0.07087570428848267,-0.35171642899513245,0.2366228997707367,0.26786431670188904,0.12885189056396484,-0.2465236485004425,-0.34893593192100525,-0.2871486246585846,0.26364484429359436,0.16974303126335144,0.29751673340797424,0.18521597981452942,0.08948159217834473,-0.0034622251987457275,-0.2688794732093811,-0.30291470885276794,-0.3306956887245178,0.1447313129901886,-0.17358338832855225,-0.07115352153778076,-0.2034718245267868,-0.0644257664680481,-0.2488432079553604,-0.2310173213481903,0.11727747321128845,-0.10507479310035706,0.21826377511024475,-0.11342301964759827,-0.25935518741607666,-0.062380582094192505,-0.1713840812444687,-0.10816667973995209,-0.3365812599658966,0.19780990481376648,-0.24614547193050385,0.17770221829414368,0.1604369580745697,0.2525900900363922,-0.27119386196136475,0.2542744576931,-0.16714292764663696,0.13119277358055115,0.3320271670818329,-0.049862295389175415,-0.0027341842651367188,-0.08139878511428833,-0.2952116131782532,0.16967126727104187,-0.3509787619113922,0.21948590874671936,0.2645375430583954,0.33435770869255066,-0.08339601755142212,-0.29049429297447205,0.07948949933052063,0.1953125298023224,-0.3518947660923004,-0.0802508294582367,-0.2119395136833191,-0.03092309832572937,-0.17402374744415283,-0.14452116191387177,-0.11223866045475006,-0.3359832167625427,0.29009321331977844,0.29639485478401184,-0.055461585521698,-0.04026338458061218,-0.1442921757698059,-0.3192809224128723,-0.3440585136413574,0.13140109181404114,-0.19411712884902954,-0.22729133069515228,-0.027585357427597046,-0.11773721873760223,-0.11438186466693878,0.011360079050064087,-0.0749930739402771,-0.12173283100128174,-0.1692834496498108]},"out_proj_weight":{"shape":[8,8],"data":[-0.28773143887519836,0.2964570224285126,-0.1414875090122223,0.09368440508842468,-0.122670978307724,0.02873021364212036,0.32961800694465637,0.16289004683494568,-0.3063892424106598,0.14032632112503052,0.33560803532600403,0.09301400184631348,0.23703089356422424,0.34856387972831726,-0.05417463183403015,0.07338157296180725,-0.24573200941085815,-0.0728592574596405,0.26183590292930603,0.18124768137931824,-0.22372469305992126,-0.28350916504859924,-0.24160555005073547,-0.34891393780708313,-0.2728155851364136,-0.08743283152580261,0.23860511183738708,0.059178560972213745,-0.2689146399497986,-0.28362900018692017,0.17588403820991516,-0.2629876136779785,-0.04353213310241699,0.169601708650589,-0.16362877190113068,-0.03855141997337341,-0.030774861574172974,-0.08364483714103699,-0.1792629361152649,-0.3151710629463196,-0.2857973575592041,-0.18931429088115692,0.3414752185344696,-0.17077147960662842,-0.23742099106311798,0.08569929003715515,0.09744295477867126,0.19371536374092102,0.2687431275844574,0.19688472151756287,-0.35054853558540344,0.03135615587234497,0.2141660749912262,-0.03267732262611389,-0.20834164321422577,0.33705654740333557,-0.13223880529403687,-0.2012936770915985,-0.3187478482723236,0.015792638063430786,0.1566711962223053,0.07826358079910278,0.06991508603096008,-0.26813045144081116]},"A":{"shape":[2],"data":[-1.0,-1.0]},"dt_raw":{"shape":[1,4,2],"data":[0.31707608699798584,-0.5779924988746643,-0.3383832275867462,-0.5086562633514404,0.6293449401855469,0.16325558722019196,0.49042096734046936,-1.3500053882598877]},"dt_bias":{"shape":[2],"data":[0.0,0.0]},"lam_raw":{"shape":[1,4,2],"data":[0.24038803577423096,-0.23540973663330078,-0.5391020178794861,0.2729763388633728,-0.5414842367172241,0.0058402493596076965,-1.8167120218276978,0.8749468326568604]},"B_raw":{"shape":[1,4,8],"data":[0.7441911697387695,-0.2793053984642029,0.7124263048171997,0.20338916778564453,-0.23242276906967163,-0.493817001581192,0.14446182548999786,0.10059960931539536,0.18279752135276794,-0.07286326587200165,-0.6034504771232605,-0.2047520875930786,-0.49747106432914734,0.3905661106109619,-0.49103182554244995,-0.2865380346775055,-0.44064515829086304,0.1393684595823288,0.6615062952041626,-0.005723539739847183,0.482189804315567,0.6102155447006226,-0.374886155128479,-0.05398968607187271,-0.535302996635437,0.8714216947555542,0.27055859565734863,0.26606935262680054,-0.24251225590705872,0.7422032952308655,-0.5601343512535095,-0.8817688226699829]},"C_raw":{"shape":[1,4,8],"data":[-0.1700274497270584,0.6056426763534546,0.8077231049537659,0.12853911519050598,0.8399664759635925,0.22324609756469727,-0.6145443916320801,-0.9663445353507996,-0.4792764186859131,-0.07311155647039413,-0.4334467649459839,0.3127559423446655,-0.6225540637969971,-0.5327668786048889,0.08136100322008133,-0.14936736226081848,0.08862848579883575,0.09215036779642105,-0.3661307692527771,-0.487243115901947,-0.17504745721817017,0.52958744764328,0.3565981090068817,0.0622151680290699,-1.0087895393371582,0.6255834102630615,-0.03158114105463028,-0.2248295694589615,0.0992707833647728,-0.8355932235717773,0.4435485899448395,-0.8156439065933228]},"B_norm_weight":{"shape":[8],"data":[1.0,1.0,1.0,1.0,1.0,1.0,1.0,1.0]},"C_norm_weight":{"shape":[8],"data":[1.0,1.0,1.0,1.0,1.0,1.0,1.0,1.0]},"B_bias":{"shape":[2,4,2],"data":[1.0,1.0,1.0,1.0,1.0,1.0,1.0,1.0,1.0,1.0,1.0,1.0,1.0,1.0,1.0,1.0]},"C_bias":{"shape":[2,4,2],"data":[1.0,1.0,1.0,1.0,1.0,1.0,1.0,1.0,1.0,1.0,1.0,1.0,1.0,1.0,1.0,1.0]},"theta":{"shape":[1,4,2],"data":[-0.8975859880447388,-0.5378022789955139,-0.08882957696914673,0.21381907165050507,-0.019942134618759155,0.03343723714351654,-0.7295616269111633,0.22995564341545105]},"x":{"shape":[1,4,2,4],"data":[0.04311199486255646,-1.1609914302825928,-0.05077294260263443,0.21375319361686707,-1.1221009492874146,-1.294966220855713,-1.0718669891357422,-0.8660338521003723,-0.6520686149597168,0.7179989814758301,-0.19345086812973022,0.03560657426714897,0.41317668557167053,0.3748295307159424,0.47164186835289,0.20599693059921265,-0.3336142599582672,-0.31369051337242126,0.1331830620765686,0.09956582635641098,-0.13303504884243011,-0.4087705910205841,0.612317681312561,-0.08682185411453247,-0.4952573776245117,0.13132093846797943,0.4468856155872345,-0.01349434070289135,-0.672235369682312,0.06676074117422104,0.797317385673523,-0.17103345692157745]},"D":{"shape":[2],"data":[0.0,0.0]},"z":{"shape":[1,4,8],"data":[0.5622186660766602,0.7126268148422241,-0.14408357441425323,-1.0263315439224243,0.19470542669296265,0.7935326099395752,-0.8861449956893921,-0.11338689923286438,-0.01591908559203148,-0.28086891770362854,0.19927677512168884,-0.10229188203811646,0.37022221088409424,-0.3248869776725769,0.9225250482559204,-0.70490562915802,0.13163073360919952,0.41509732604026794,0.0897342786192894,0.026614297181367874,0.03854643553495407,0.4083477854728699,-0.56069415807724,0.1811128705739975,-0.48511090874671936,0.35560792684555054,-0.10560537129640579,0.17770764231681824,-0.35653042793273926,0.5024267435073853,0.034483402967453,-0.4847613275051117]},"mimo_x_proj":{"shape":[2,4,2],"data":[1.0,1.0,1.0,1.0,1.0,1.0,1.0,1.0,1.0,1.0,1.0,1.0,1.0,1.0,1.0,1.0]},"mimo_z_proj":{"shape":[2,4,2],"data":[1.0,1.0,1.0,1.0,1.0,1.0,1.0,1.0,1.0,1.0,1.0,1.0,1.0,1.0,1.0,1.0]},"mimo_down":{"shape":[2,4,2],"data":[0.5,0.5,0.5,0.5,0.5,0.5,0.5,0.5,0.5,0.5,0.5,0.5,0.5,0.5,0.5,0.5]}},"activated":{"dt":{"shape":[1,4,2],"data":[0.8642001152038574,0.44534167647361755,0.5382006764411926,0.4708177149295807,1.056532859802246,0.7781028151512146,0.9681252241134644,0.2305074781179428]},"lam":{"shape":[1,4,2],"data":[0.5598093271255493,0.4414178729057312,0.368396520614624,0.5678234696388245,0.3678423762321472,0.501460075378418,0.1398288756608963,0.7057740092277527]}},"expected":{"alpha":{"shape":[1,4,2],"data":[0.4213884770870209,0.6406053304672241,0.5837977528572083,0.6244913935661316,0.3476591110229492,0.4592765271663666,0.3797943890094757,0.7941305041313171]},"beta":{"shape":[1,4,2],"data":[0.1603015810251236,0.15935692191123962,0.19845004379749298,0.12706923484802246,0.23219989240169525,0.1781603991985321,0.31627506017684937,0.053858958184719086]},"gamma":{"shape":[1,4,2],"data":[0.48378729820251465,0.19658178091049194,0.1982712596654892,0.26734134554862976,0.38863757252693176,0.39018750190734863,0.1353718638420105,0.16268618404865265]},"B_qkn":{"shape":[1,4,8],"data":[1.7131081819534302,-0.6429535746574402,1.6399863958358765,0.46819645166397095,-0.5350310206413269,-1.1367535591125488,0.33254727721214294,0.23157761991024017,0.4783793091773987,-0.19068244099617004,-1.579223871231079,-0.5358341932296753,-1.3018769025802612,1.0221076011657715,-1.2850254774093628,-0.7498672008514404,-1.0534865856170654,0.3331996202468872,1.5815174579620361,-0.013683736324310303,1.15281081199646,1.4588924646377563,-0.8962711095809937,-0.12907756865024567,-0.8904812932014465,1.4496177434921265,0.4500766396522522,0.4426087439060211,-0.4034212827682495,1.2346618175506592,-0.931788444519043,-1.4668302536010742]},"C_qkn":{"shape":[1,4,8],"data":[-0.2717570662498474,0.9680065512657166,1.2909942865371704,0.20544573664665222,1.342529296875,0.3568171262741089,-0.9822342991828918,-1.5445209741592407,-1.2267142534255981,-0.18712998926639557,-1.109412670135498,0.8005029559135437,-1.593435287475586,-1.363623857498169,0.20824454724788666,-0.3823077082633972,0.2751525640487671,0.28608646988868713,-1.136675477027893,-1.5126761198043823,-0.5434455871582031,1.644136667251587,1.1070806980133057,0.19315080344676971,-1.638976812362671,1.016383171081543,-0.05130976811051369,-0.36527982354164124,0.1612848937511444,-1.3575854301452637,0.7206318378448486,-1.3251737356185913]},"B_biased":{"shape":[1,4,2,4,2],"data":[2.7131080627441406,0.3570464253425598,2.639986515045166,1.4681963920593262,0.4649689793586731,-0.13675355911254883,1.3325473070144653,1.2315776348114014,2.7131080627441406,0.3570464253425598,2.639986515045166,1.4681963920593262,0.4649689793586731,-0.13675355911254883,1.3325473070144653,1.2315776348114014,1.478379249572754,0.8093175888061523,-0.5792238712310791,0.4641658067703247,-0.30187690258026123,2.0221076011657715,-0.2850254774093628,0.25013279914855957,1.478379249572754,0.8093175888061523,-0.5792238712310791,0.4641658067703247,-0.30187690258026123,2.0221076011657715,-0.2850254774093628,0.25013279914855957,-0.05348658561706543,1.3331996202468872,2.581517457962036,0.9863162636756897,2.15281081199646,2.458892345428467,0.10372889041900635,0.8709224462509155,-0.05348658561706543,1.3331996202468872,2.581517457962036,0.9863162636756897,2.15281081199646,2.458892345428467,0.10372889041900635,0.8709224462509155,0.10951870679855347,2.449617862701416,1.4500765800476074,1.4426087141036987,0.5965787172317505,2.234661817550659,0.06821155548095703,-0.4668302536010742,0.10951870679855347,2.449617862701416,1.4500765800476074,1.4426087141036987,0.5965787172317505,2.234661817550659,0.06821155548095703,-0.4668302536010742]},"C_biased":{"shape":[1,4,2,4,2],"data":[0.7282429337501526,1.9680066108703613,2.290994167327881,1.2054457664489746,2.342529296875,1.3568171262741089,0.017765700817108154,-0.5445209741592407,0.7282429337501526,1.9680066108703613,2.290994167327881,1.2054457664489746,2.342529296875,1.3568171262741089,0.017765700817108154,-0.5445209741592407,-0.22671425342559814,0.8128700256347656,-0.10941267013549805,1.8005030155181885,-0.5934352874755859,-0.36362385749816895,1.2082445621490479,0.6176922917366028,-0.22671425342559814,0.8128700256347656,-0.10941267013549805,1.8005030155181885,-0.5934352874755859,-0.36362385749816895,1.2082445621490479,0.6176922917366028,1.275152564048767,1.2860864400863647,-0.13667547702789307,-0.5126761198043823,0.4565544128417969,2.644136667251587,2.1070806980133057,1.1931507587432861,1.275152564048767,1.2860864400863647,-0.13667547702789307,-0.5126761198043823,0.4565544128417969,2.644136667251587,2.1070806980133057,1.1931507587432861,-0.6389768123626709,2.016383171081543,0.9486902356147766,0.6347202062606812,1.1612849235534668,-0.35758543014526367,1.7206318378448486,-0.3251737356185913,-0.6389768123626709,2.016383171081543,0.9486902356147766,0.6347202062606812,1.1612849235534668,-0.35758543014526367,1.7206318378448486,-0.3251737356185913]},"cum_angles":{"shape":[1,4,2,2],"data":[0.7756938934326172,0.46476879715919495,0.39973244071006775,0.23950576782226562,0.8235020041465759,0.3496912121772766,0.4415549635887146,0.13883596658706665,0.8445715308189392,0.3143636882305145,0.45707201957702637,0.11281835287809372,1.5508785247802734,0.09173783659934998,0.6252413988113403,0.059811852872371674]},"B_roped":{"shape":[1,4,2,4,2],"data":[0.08843445777893066,-0.7731400728225708,3.784529447555542,1.2982053756713867,-0.1816217601299286,-0.6742604374885559,1.3996042013168335,1.0396431684494019,1.4718120098114014,-0.24248206615447998,3.487729072570801,1.4914038181304932,0.13558635115623474,-0.4250079393386841,1.4048113822937012,1.1639816761016846,1.4296685457229614,0.2095782458782196,0.6907628774642944,0.9091324806213379,-0.1859549582004547,1.814029335975647,-0.37120068073272705,0.9277841448783875,1.5841141939163208,0.5333352088928223,0.10810971260070801,0.765505313873291,-0.25952741503715515,1.9680345058441162,-0.32405975461006165,0.5275661945343018,-1.965683937072754,0.14785802364349365,1.6742697954177856,1.6517804861068726,2.0152344703674316,2.069091320037842,0.7643191814422607,1.5885590314865112,-1.187278151512146,0.7610610723495483,2.2929160594940186,1.4734405279159546,2.1274471282958984,2.345212697982788,0.3454311490058899,1.142205834388733,-1.4476077556610107,-1.3935346603393555,0.13837741315364838,2.4778635501861572,0.5878213047981262,2.268030881881714,0.12257683277130127,-0.26015162467956543,-0.7599195241928101,1.1418548822402954,1.2398542165756226,2.603442668914795,0.5914344787597656,2.258570909500122,0.1037507951259613,-0.3324158787727356]},"C_roped":{"shape":[1,4,2,4,2],"data":[-1.084262490272522,0.5609622597694397,2.1455459594726562,2.2386314868927,2.086082935333252,1.456956148147583,1.0658406019210815,0.12138631939888,-0.22075849771499634,1.343733549118042,2.3937957286834717,1.876307487487793,2.2714481353759766,1.4472599029541016,0.572959303855896,-0.207110196352005,-0.07383029907941818,-0.7682512998580933,-0.24066485464572906,1.819988489151001,-0.9714736938476562,-0.5532429814338684,0.9318044185638428,0.45572832226753235,-0.15821264684200287,-0.03453117609024048,-0.19580408930778503,1.9751901626586914,-0.754934549331665,-0.44560766220092773,1.1144927740097046,0.5614266395568848,0.9489576816558838,1.237349033355713,0.8626549243927002,0.6211462020874023,-0.21735316514968872,2.145620584487915,2.144991636276245,1.9522757530212402,1.2045742273330688,1.3803232908248901,0.4401080906391144,0.10752987861633301,0.21643857657909393,2.4930033683776855,2.1450839042663574,1.4832403659820557,-0.9612282514572144,-0.5944350361824036,-0.6199554800987244,2.0286245346069336,0.9987760186195374,-0.32629287242889404,1.819780945777893,-0.3565644919872284,-1.0733580589294434,1.2634302377700806,0.39523008465766907,1.6948199272155762,1.0563554763793945,-0.33750835061073303,1.7869722843170166,-0.3459673523902893]},"x_mimo":{"shape":[1,4,2,4,2],"data":[0.04311199486255646,0.04311199486255646,-1.1609914302825928,-1.1609914302825928,-0.05077294260263443,-0.05077294260263443,0.21375319361686707,0.21375319361686707,-1.1221009492874146,-1.1221009492874146,-1.294966220855713,-1.294966220855713,-1.0718669891357422,-1.0718669891357422,-0.8660338521003723,-0.8660338521003723,-0.6520686149597168,-0.6520686149597168,0.7179989814758301,0.7179989814758301,-0.19345086812973022,-0.19345086812973022,0.03560657426714897,0.03560657426714897,0.41317668557167053,0.41317668557167053,0.3748295307159424,0.3748295307159424,0.47164186835289,0.47164186835289,0.20599693059921265,0.20599693059921265,-0.3336142599582672,-0.3336142599582672,-0.31369051337242126,-0.31369051337242126,0.1331830620765686,0.1331830620765686,0.09956582635641098,0.09956582635641098,-0.13303504884243011,-0.13303504884243011,-0.4087705910205841,-0.4087705910205841,0.612317681312561,0.612317681312561,-0.08682185411453247,-0.08682185411453247,-0.4952573776245117,-0.4952573776245117,0.13132093846797943,0.13132093846797943,0.4468856155872345,0.4468856155872345,-0.01349434070289135,-0.01349434070289135,-0.672235369682312,-0.672235369682312,0.06676074117422104,0.06676074117422104,0.797317385673523,0.797317385673523,-0.17103345692157745,-0.17103345692157745]},"y_scan":{"shape":[1,4,2,4,2],"data":[0.2599214017391205,0.20947524905204773,-6.999595642089844,-5.641097545623779,-0.30610913038253784,-0.24669873714447021,1.2887139320373535,1.0385972261428833,-2.748936653137207,-2.2154159545898438,-3.172423839569092,-2.5567119121551514,-2.625872850418091,-2.116236686706543,-2.1216201782226562,-1.7098509073257446,0.242906853556633,0.10556861758232117,-1.3018343448638916,-6.200133323669434,0.013019010424613953,-0.3159674406051636,0.1874815821647644,1.174971342086792,-0.7093141078948975,-3.0745489597320557,-0.7758012413978577,-3.575613498687744,-0.709843635559082,-2.91622257232666,-0.5000909566879272,-2.4032692909240723,-1.363029956817627,-3.1629796028137207,-1.6067886352539062,-0.9786118268966675,-0.02314518392086029,0.19457843899726868,0.5727928876876831,0.7783600091934204,-0.984266996383667,-0.42664361000061035,-1.7789161205291748,-2.036958694458008,0.6764894723892212,3.568586826324463,-0.8539585471153259,-0.5052398443222046,-1.4963676929473877,-1.3724422454833984,-1.1794655323028564,-1.3343782424926758,0.7165156602859497,0.6525304913520813,0.37995445728302,0.3938046991825104,-1.3378547430038452,-1.4477324485778809,-1.9072304964065552,-1.2729957103729248,2.104430675506592,1.140740990638733,-0.7752805948257446,-0.8440828919410706]},"ssm_state":{"shape":[1,2,4,4],"data":[0.3476788401603699,-0.7955293655395508,-0.9472994804382324,-0.3897290527820587,0.39909473061561584,-0.6807877421379089,-0.3467729389667511,-0.47893351316452026,-0.3182435929775238,0.3119739294052124,0.3918378949165344,0.11686166375875473,-0.08138631284236908,0.22433868050575256,0.17843671143054962,0.14429500699043274,0.06224603205919266,-1.0253932476043701,-0.3298082947731018,-0.28952962160110474,0.11214008927345276,-1.0274989604949951,-0.4468306601047516,-0.5085437297821045,0.07322379946708679,0.9494990110397339,1.586639404296875,0.07370031625032425,0.010065633803606033,-0.5757868885993958,-0.1135910302400589,-0.23330843448638916]},"last_Bx":{"shape":[1,2,4,4],"data":[1.4070967435836792,-1.2957127094268799,-1.4143818616867065,0.06813493371009827,-0.37310147285461426,0.34356722235679626,0.3750331997871399,-0.01806645095348358,-1.2696657180786133,1.1691604852676392,1.276239275932312,-0.061480194330215454,0.038339342921972275,-0.03530444949865341,-0.03853784129023552,0.0018564810743555427,-0.2567504644393921,-2.5836000442504883,-1.9158744812011719,0.1537167727947235,0.02549828588962555,0.2565813362598419,0.19026847183704376,-0.01526585128158331,0.3045237064361572,3.0643274784088135,2.2723588943481445,-0.18231865763664246,-0.06532372534275055,-0.6573323607444763,-0.48744624853134155,0.039109379053115845]},"y_with_d":{"shape":[1,4,2,4,2],"data":[0.2599214017391205,0.20947524905204773,-6.999595642089844,-5.641097545623779,-0.30610913038253784,-0.24669873714447021,1.2887139320373535,1.0385972261428833,-2.748936653137207,-2.2154159545898438,-3.172423839569092,-2.5567119121551514,-2.625872850418091,-2.116236686706543,-2.1216201782226562,-1.7098509073257446,0.242906853556633,0.10556861758232117,-1.3018343448638916,-6.200133323669434,0.013019010424613953,-0.3159674406051636,0.1874815821647644,1.174971342086792,-0.7093141078948975,-3.0745489597320557,-0.7758012413978577,-3.575613498687744,-0.709843635559082,-2.91622257232666,-0.5000909566879272,-2.4032692909240723,-1.363029956817627,-3.1629796028137207,-1.6067886352539062,-0.9786118268966675,-0.02314518392086029,0.19457843899726868,0.5727928876876831,0.7783600091934204,-0.984266996383667,-0.42664361000061035,-1.7789161205291748,-2.036958694458008,0.6764894723892212,3.568586826324463,-0.8539585471153259,-0.5052398443222046,-1.4963676929473877,-1.3724422454833984,-1.1794655323028564,-1.3343782424926758,0.7165156602859497,0.6525304913520813,0.37995445728302,0.3938046991825104,-1.3378547430038452,-1.4477324485778809,-1.9072304964065552,-1.2729957103729248,2.104430675506592,1.140740990638733,-0.7752805948257446,-0.8440828919410706]},"z_mimo":{"shape":[1,4,2,4,2],"data":[0.5622186660766602,0.5622186660766602,0.7126268148422241,0.7126268148422241,-0.14408357441425323,-0.14408357441425323,-1.0263315439224243,-1.0263315439224243,0.19470542669296265,0.19470542669296265,0.7935326099395752,0.7935326099395752,-0.8861449956893921,-0.8861449956893921,-0.11338689923286438,-0.11338689923286438,-0.01591908559203148,-0.01591908559203148,-0.28086891770362854,-0.28086891770362854,0.19927677512168884,0.19927677512168884,-0.10229188203811646,-0.10229188203811646,0.37022221088409424,0.37022221088409424,-0.3248869776725769,-0.3248869776725769,0.9225250482559204,0.9225250482559204,-0.70490562915802,-0.70490562915802,0.13163073360919952,0.13163073360919952,0.41509732604026794,0.41509732604026794,0.0897342786192894,0.0897342786192894,0.026614297181367874,0.026614297181367874,0.03854643553495407,0.03854643553495407,0.4083477854728699,0.4083477854728699,-0.56069415807724,-0.56069415807724,0.1811128705739975,0.1811128705739975,-0.48511090874671936,-0.48511090874671936,0.35560792684555054,0.35560792684555054,-0.10560537129640579,-0.10560537129640579,0.17770764231681824,0.17770764231681824,-0.35653042793273926,-0.35653042793273926,0.5024267435073853,0.5024267435073853,0.034483402967453,0.034483402967453,-0.4847613275051117,-0.4847613275051117]},"y_gated_rank":{"shape":[1,4,2,4,2],"data":[0.0930815041065216,0.07501602917909622,-3.346921682357788,-2.697343111038208,0.020466679707169533,0.01649445667862892,-0.3489091098308563,-0.28119197487831116,-0.2935876250267029,-0.2366073876619339,-1.7334697246551514,-1.3970335721969604,0.6792372465133667,0.547409176826477,0.11347006261348724,0.09144750982522964,-0.0019180385861545801,-0.0008335898164659739,0.15731529891490936,0.7492319345474243,0.0014260174939408898,-0.03460901230573654,-0.009098914451897144,-0.05702407285571098,-0.1553335040807724,-0.6732989549636841,0.10573029518127441,0.4873035252094269,-0.468580961227417,-1.9250527620315552,0.11658633500337601,0.5602747797966003,-0.09560399502515793,-0.22185388207435608,-0.40172460675239563,-0.24466966092586517,-0.0010850195540115237,0.009121612645685673,0.007723664399236441,0.010495576076209545,-0.019335560500621796,-0.008381255902349949,-0.43635228276252747,-0.4996478259563446,-0.13783396780490875,-0.7270956039428711,-0.0843152180314064,-0.04988463222980499,0.27660292387008667,0.25369536876678467,-0.2466135323047638,-0.2790040969848633,-0.03583807125687599,-0.032637715339660645,0.03675227612257004,0.038091983646154404,0.19642266631126404,0.21255481243133545,-0.5970140099525452,-0.3984816074371338,0.03690950199961662,0.02000739611685276,0.14323799312114716,0.1559496521949768]},"y_contracted":{"shape":[1,4,2,4],"data":[0.08404876291751862,-3.022132396697998,0.018480569124221802,-0.31505054235458374,-0.2650974988937378,-1.5652515888214111,0.6133232116699219,0.10245878994464874,-0.001375814201310277,0.45327362418174744,-0.016591496765613556,-0.033061493188142776,-0.41431623697280884,0.29651689529418945,-1.1968169212341309,0.3384305536746979,-0.1587289422750473,-0.3231971263885498,0.004018296487629414,0.00910962000489235,-0.013858407735824585,-0.46800005435943604,-0.4324647784233093,-0.067099928855896,0.26514914631843567,-0.26280879974365234,-0.03423789143562317,0.03742212802171707,0.20448873937129974,-0.4977478086948395,0.028458449989557266,0.14959383010864258]},"y_final":{"shape":[1,4,8],"data":[-0.745844304561615,-1.1070725917816162,0.4664139747619629,0.8232368230819702,-0.5102505683898926,0.6166347861289978,-0.6876543164253235,0.4377283751964569,-0.1459996998310089,0.1502053290605545,0.13667833805084229,-0.31736016273498535,0.1767551153898239,-0.012721113860607147,0.35864752531051636,-0.3024168312549591,-0.21508166193962097,-0.14243239164352417,0.32893669605255127,0.1511075496673584,0.0893314778804779,0.014410702511668205,-0.027603916823863983,0.03386785835027695,-0.15149062871932983,-0.2417186200618744,-0.011893823742866516,-0.0034637004137039185,-0.06886397302150726,-0.10356234759092331,0.13724154233932495,-0.015696024522185326]}}}