{"config":{"d_model":8,"expand":1,"d_inner":8,"headdim":4,"nheads":2,"d_state":4,"num_bc_heads":1,"mimo_rank":2,"effective_rank":2,"is_mimo":true,"rope_fraction":1.0,"split_tensor_size":4,"num_rope_angles":2,"rotary_dim_divisor":2,"A_floor":0.0001,"chunk_size":2,"batch":1,"seqlen":4,"d_in_proj":40,"seed":42,"reference_sha":"7438488","reference_repo":"state-spaces/mamba"},"inputs":{"u":{"shape":[1,4,8],"data":[0.6663737893104553,-0.07426456362009048,-0.20960482954978943,0.16632132232189178,1.4703037738800049,-0.9390866756439209,-0.6013189554214478,-0.09964022785425186,-0.9851518273353577,-2.488459348678589,-0.33131900429725647,0.8435799479484558,0.9874473810195923,-0.33197471499443054,-0.8076189756393433,0.824364185333252,0.024699924513697624,-1.0641486644744873,-0.7601934671401978,-0.4075061082839966,0.9623646140098572,-0.14264194667339325,0.15271379053592682,-0.0388023778796196,0.9446058869361877,-1.5824053287506104,0.9871290922164917,1.1456739902496338,-0.14181147515773773,-0.2763414680957794,-0.19321373105049133,0.7767809629440308]},"in_proj_weight":{"shape":[40,8],"data":[0.27030518651008606,0.29345211386680603,-0.08282783627510071,0.32477810978889465,-0.07746481895446777,0.07134377956390381,-0.17212924361228943,0.2076357901096344,0.31167247891426086,-0.2593767046928406,0.30730727314949036,0.06617081165313721,0.2612083852291107,0.04788193106651306,0.1704792082309723,-0.049918562173843384,0.2725493013858795,0.05225834250450134,-0.16505283117294312,0.09012016654014587,-0.16289499402046204,-0.041462212800979614,-0.14359864592552185,0.2345370352268219,-0.2790845036506653,-0.16299176216125488,-0.09983453154563904,-0.21258191764354706,0.033369481563568115,-0.34919729828834534,0.31929728388786316,-0.30033236742019653,0.2729528844356537,0.05883803963661194,-0.11480037868022919,0.21847829222679138,0.05510157346725464,0.28565821051597595,0.038650333881378174,-0.11150126159191132,0.09499400854110718,-0.09587639570236206,0.14879563450813293,0.3156602680683136,0.20437493920326233,-0.15456382930278778,0.20409390330314636,0.06325995922088623,0.1795468032360077,-0.21549257636070251,-0.3499854803085327,-0.1365990787744522,-0.2711835205554962,0.29010429978370667,0.10183444619178772,0.1464465856552124,0.11181521415710449,-0.006150394678115845,0.27669379115104675,-0.2512044906616211,0.02226102352142334,-0.2413143813610077,0.10901889204978943,-0.12175752222537994,0.1083345115184784,-0.07365983724594116,0.29323431849479675,-0.20955176651477814,-0.2108585238456726,-0.21087126433849335,0.31800106167793274,0.11782205104827881,0.3402070105075836,-0.29177922010421753,-0.3506811559200287,-0.27660736441612244,-0.2378315031528473,0.14320331811904907,0.12659892439842224,0.29377612471580505,-0.18258394300937653,-0.2410215139389038,0.187587708234787,-0.14290785789489746,0.2145799696445465,-0.08389845490455627,0.20224878191947937,-0.2746996581554413,-0.17842063307762146,0.10779011249542236,0.07474386692047119,-0.09014153480529785,0.21074238419532776,0.24034884572029114,-0.25638750195503235,-0.18875090777873993,0.32373538613319397,-0.11930041015148163,-0.12534046173095703,-0.34209635853767395,-0.20246949791908264,0.08831894397735596,-0.046666622161865234,-0.2566394507884979,0.008293181657791138,-0.24150577187538147,-0.29995352029800415,-0.19468863308429718,-0.309434175491333,-0.2251209020614624,0.3534151017665863,0.06677737832069397,0.1089509129524231,-0.32975369691848755,-0.2322046011686325,-0.1176823079586029,0.05528554320335388,-0.31109917163848877,-0.15233662724494934,-0.21166129410266876,0.000979781150817871,-0.1315583437681198,-0.024499744176864624,-0.2395782768726349,-0.24267733097076416,-0.2062636762857437,-0.12102042138576508,-0.2790529131889343,0.2964438498020172,-0.07016763091087341,0.30419620871543884,0.11016088724136353,-0.29938793182373047,0.24467137455940247,-0.09727838635444641,-0.13552622497081757,-0.2934742271900177,-0.35148885846138,0.1011553704738617,-0.07723155617713928,0.13764649629592896,-0.2901483476161957,0.26248833537101746,-0.25952717661857605,-0.06104925274848938,0.07384657859802246,0.18252256512641907,0.2854273021221161,0.32207271456718445,-0.280340313911438,0.08897781372070312,-0.1520724892616272,-0.03874409198760986,-0.2646312117576599,0.32203713059425354,-0.2594906687736511,0.1889570653438568,0.12425264716148376,0.11488926410675049,-0.19114729762077332,0.3213628828525543,0.07769349217414856,0.0454811155796051,-0.3115706145763397,0.1484176218509674,-0.05304029583930969,-0.16197139024734497,0.30368348956108093,0.07882431149482727,-0.19561274349689484,-0.17894713580608368,-0.016884207725524902,0.19741055369377136,-0.09034484624862671,-0.2017286866903305,-0.12107183039188385,-0.2641308307647705,0.12608861923217773,0.27366456389427185,-0.3328494131565094,0.08211302757263184,0.18264278769493103,0.06410962343215942,-0.12590907514095306,0.18453440070152283,0.18579694628715515,0.13220325112342834,-0.06212690472602844,-0.09362137317657471,0.03782346844673157,-0.06245666742324829,-0.10535928606987,0.2259937822818756,0.3038436472415924,-0.03500086069107056,-0.07915949821472168,0.005159139633178711,-0.021110057830810547,0.084998220205307,0.09907755255699158,-0.32111725211143494,-0.1304745376110077,0.2977377474308014,0.1377284824848175,-0.017584890127182007,-0.21315936744213104,-0.21630576252937317,-0.31670141220092773,-0.11524511873722076,0.11939644813537598,0.22543326020240784,0.163234680891037,-0.31252139806747437,-0.21261373162269592,-0.05579662322998047,0.34200969338417053,0.051144152879714966,-0.09155997633934021,0.14627042412757874,-0.1346619576215744,-0.2288394272327423,0.25805410742759705,-0.16076135635375977,-0.07087570428848267,-0.35171642899513245,0.2366228997707367,0.26786431670188904,0.12885189056396484,-0.2465236485004425,-0.34893593192100525,-0.2871486246585846,0.26364484429359436,0.16974303126335144,0.29751673340797424,0.18521597981452942,0.08948159217834473,-0.0034622251987457275,-0.2688794732093811,-0.30291470885276794,-0.3306956887245178,0.1447313129901886,-0.17358338832855225,-0.07115352153778076,-0.2034718245267868,-0.0644257664680481,-0.2488432079553604,-0.2310173213481903,0.11727747321128845,-0.10507479310035706,0.21826377511024475,-0.11342301964759827,-0.25935518741607666,-0.062380582094192505,-0.1713840812444687,-0.10816667973995209,-0.3365812599658966,0.19780990481376648,-0.24614547193050385,0.17770221829414368,0.1604369580745697,0.2525900900363922,-0.27119386196136475,0.2542744576931,-0.16714292764663696,0.13119277358055115,0.3320271670818329,-0.049862295389175415,-0.0027341842651367188,-0.08139878511428833,-0.2952116131782532,0.16967126727104187,-0.3509787619113922,0.21948590874671936,0.2645375430583954,0.33435770869255066,-0.08339601755142212,-0.29049429297447205,0.07948949933052063,0.1953125298023224,-0.3518947660923004,-0.0802508294582367,-0.2119395136833191,-0.03092309832572937,-0.17402374744415283,-0.14452116191387177,-0.11223866045475006,-0.3359832167625427,0.29009321331977844,0.29639485478401184,-0.055461585521698,-0.04026338458061218,-0.1442921757698059,-0.3192809224128723,-0.3440585136413574,0.13140109181404114,-0.19411712884902954,-0.22729133069515228,-0.027585357427597046,-0.11773721873760223,-0.11438186466693878,0.011360079050064087,-0.0749930739402771,-0.12173283100128174,-0.1692834496498108,-0.28773143887519836,0.2964570224285126,-0.1414875090122223,0.09368440508842468,-0.122670978307724,0.02873021364212036,0.32961800694465637,0.16289004683494568,-0.3063892424106598,0.14032632112503052,0.33560803532600403,0.09301400184631348,0.23703089356422424,0.34856387972831726,-0.05417463183403015,0.07338157296180725]},"out_proj_weight":{"shape":[8,8],"data":[-0.24573200941085815,-0.0728592574596405,0.26183590292930603,0.18124768137931824,-0.22372469305992126,-0.28350916504859924,-0.24160555005073547,-0.34891393780708313,-0.2728155851364136,-0.08743283152580261,0.23860511183738708,0.059178560972213745,-0.2689146399497986,-0.28362900018692017,0.17588403820991516,-0.2629876136779785,-0.04353213310241699,0.169601708650589,-0.16362877190113068,-0.03855141997337341,-0.030774861574172974,-0.08364483714103699,-0.1792629361152649,-0.3151710629463196,-0.2857973575592041,-0.18931429088115692,0.3414752185344696,-0.17077147960662842,-0.23742099106311798,0.08569929003715515,0.09744295477867126,0.19371536374092102,0.2687431275844574,0.19688472151756287,-0.35054853558540344,0.03135615587234497,0.2141660749912262,-0.03267732262611389,-0.20834164321422577,0.33705654740333557,-0.13223880529403687,-0.2012936770915985,-0.3187478482723236,0.015792638063430786,0.1566711962223053,0.07826358079910278,0.06991508603096008,-0.26813045144081116,-0.33017900586128235,0.006225854158401489,0.3223820626735687,0.2039724886417389,-0.20585089921951294,-0.04589426517486572,-0.2606337368488312,-0.17056243121623993,0.06402793526649475,0.19252344965934753,0.29287275671958923,-0.3245995044708252,0.23639115691184998,-0.2493584156036377,0.13239416480064392,0.299192875623703]},"dt_bias":{"shape":[2],"data":[0.0,0.0]},"D":{"shape":[2],"data":[0.0,0.0]},"B_bias":{"shape":[2,2,4],"data":[0.0,0.0,0.0,0.0,0.0,0.0,0.0,0.0,0.0,0.0,0.0,0.0,0.0,0.0,0.0,0.0]},"C_bias":{"shape":[2,2,4],"data":[0.0,0.0,0.0,0.0,0.0,0.0,0.0,0.0,0.0,0.0,0.0,0.0,0.0,0.0,0.0,0.0]},"B_norm_weight":{"shape":[4],"data":[1.0,1.0,1.0,1.0]},"C_norm_weight":{"shape":[4],"data":[1.0,1.0,1.0,1.0]},"mimo_x":{"shape":[2,2,4],"data":[0.5,0.5,0.5,0.5,0.5,0.5,0.5,0.5,0.5,0.5,0.5,0.5,0.5,0.5,0.5,0.5]},"mimo_z":{"shape":[2,2,4],"data":[1.0,1.0,1.0,1.0,1.0,1.0,1.0,1.0,1.0,1.0,1.0,1.0,1.0,1.0,1.0,1.0]},"mimo_o":{"shape":[2,2,4],"data":[0.5,0.5,0.5,0.5,0.5,0.5,0.5,0.5,0.5,0.5,0.5,0.5,0.5,0.5,0.5,0.5]}},"post_split_raw":{"z_raw":{"shape":[1,4,8],"data":[0.13163073360919952,0.41509732604026794,0.0897342786192894,0.026614297181367874,0.03854643553495407,0.4083477854728699,-0.56069415807724,0.1811128705739975,-0.48511090874671936,0.35560792684555054,-0.10560537129640579,0.17770764231681824,-0.35653042793273926,0.5024267435073853,0.034483402967453,-0.4847613275051117,-0.49405336380004883,0.29565492272377014,-0.142011359333992,0.47141456604003906,-0.035121332854032516,0.11006993055343628,0.26298317313194275,-0.02144874818623066,0.26711517572402954,0.9620200395584106,0.3595649302005768,-0.5510245561599731,0.12087628245353699,0.7734065651893616,0.06098892539739609,0.04857317730784416]},"x_raw":{"shape":[1,4,8],"data":[-0.3336142599582672,-0.31369051337242126,0.1331830620765686,0.09956582635641098,-0.13303504884243011,-0.4087705910205841,0.612317681312561,-0.08682185411453247,-0.4952573776245117,0.13132093846797943,0.4468856155872345,-0.01349434070289135,-0.672235369682312,0.06676074117422104,0.797317385673523,-0.17103345692157745,-0.1853126585483551,0.4568309783935547,0.42762258648872375,-0.0025009997189044952,0.1650231033563614,0.350265771150589,0.6606044173240662,0.044500190764665604,0.38652968406677246,0.3178984224796295,-0.02933264896273613,-0.5619803667068481,-0.20710383355617523,-0.039470426738262177,0.20382672548294067,-0.1915254145860672]},"B_raw":{"shape":[1,4,8],"data":[-0.44064515829086304,0.1393684595823288,0.6615062952041626,-0.005723539739847183,0.482189804315567,0.6102155447006226,-0.374886155128479,-0.05398968607187271,-0.535302996635437,0.8714216947555542,0.27055859565734863,0.26606935262680054,-0.24251225590705872,0.7422032952308655,-0.5601343512535095,-0.8817688226699829,-0.5267660617828369,0.5453715920448303,0.03427110239863396,0.33066755533218384,0.13153141736984253,0.5297818183898926,-0.1454547494649887,-0.36928343772888184,0.7059106826782227,0.0986996442079544,0.22913455963134766,0.17094627022743225,0.12935662269592285,0.12991024553775787,-0.7325244545936584,-0.12731851637363434]},"C_raw":{"shape":[1,4,8],"data":[0.08862848579883575,0.09215036779642105,-0.3661307692527771,-0.487243115901947,-0.17504745721817017,0.52958744764328,0.3565981090068817,0.0622151680290699,-1.0087895393371582,0.6255834102630615,-0.03158114105463028,-0.2248295694589615,0.0992707833647728,-0.8355932235717773,0.4435485899448395,-0.8156439065933228,-0.2417752742767334,-0.1588124781847,-0.6600177884101868,-0.2364582121372223,-0.7581802606582642,-0.48807957768440247,0.25896406173706055,-0.08199287950992584,-0.32692939043045044,0.2120160162448883,0.49127107858657837,0.12045256048440933,0.09703291952610016,-0.1486603021621704,0.32167986035346985,-1.0380795001983643]},"dd_dt":{"shape":[1,4,2],"data":[0.6293449401855469,0.16325558722019196,0.49042096734046936,-1.3500053882598877,0.39343830943107605,-0.30776241421699524,0.7957369685173035,-0.6661229729652405]},"dd_A":{"shape":[1,4,2],"data":[-0.5414842367172241,0.0058402493596076965,-1.8167120218276978,0.8749468326568604,-0.7436968684196472,0.13233855366706848,-0.26862144470214844,0.37143564224243164]},"trap_raw":{"shape":[1,4,2],"data":[-0.019942134618759155,0.03343723714351654,-0.7295616269111633,0.22995564341545105,-0.07484029233455658,0.16946323215961456,0.12686243653297424,-0.5071786642074585]},"angles_raw":{"shape":[1,4,2],"data":[-0.5902944803237915,-0.22302570939064026,-0.5909481644630432,0.14250174164772034,-0.33133602142333984,-0.2826569676399231,-0.7009426355361938,-0.13608568906784058]}},"post_derivation":{"_A":{"shape":[1,4,2],"data":[-0.4586165249347687,-0.6960715651512146,-0.15062391757965088,-1.2234070301055908,-0.38889750838279724,-0.761504054069519,-0.5678291320800781,-0.8960123062133789]},"DT":{"shape":[1,4,2],"data":[1.056532859802246,0.7781028151512146,0.9681252241134644,0.2305074781179428,0.9090920090675354,0.5510592460632324,1.168161153793335,0.41455453634262085]},"ADT":{"shape":[1,4,2],"data":[-0.48454344272613525,-0.5416152477264404,-0.14582280814647675,-0.2820044755935669,-0.35354360938072205,-0.4196338355541229,-0.6633159518241882,-0.3714459538459778]},"trap":{"shape":[1,4,2],"data":[0.49501463770866394,0.5083585381507874,0.3252909481525421,0.557236909866333,0.48129865527153015,0.5422646999359131,0.5316731333732605,0.37585514783859253]},"gamma":{"shape":[1,4,2],"data":[0.5229992270469666,0.39555519819259644,0.31492236256599426,0.1284472793340683,0.4375447630882263,0.29881998896598816,0.6210799217224121,0.15581245720386505]},"shifted_gamma":{"shape":[1,4,2],"data":[0.6532028913497925,0.10206020623445511,0.4715472161769867,0.25223925709724426,0.5470812320709229,0.258742094039917,0.0,0.0]},"scale":{"shape":[1,4,2],"data":[1.1762020587921143,0.49761539697647095,0.786469578742981,0.38068652153015137,0.9846259951591492,0.5575621128082275,0.6210799217224121,0.15581245720386505]},"B_post_norm":{"shape":[1,4,2,1,4],"data":[-1.0920523405075073,0.34539729356765747,1.6394131183624268,-0.01418466679751873,1.1147857904434204,1.4107714891433716,-0.8667080402374268,-0.12482000887393951,-0.9814394116401672,1.5976887941360474,0.4960496425628662,0.48781895637512207,-0.3718891143798828,1.1381583213806152,-0.8589581251144409,-1.352180004119873,-1.272489309310913,1.3174339532852173,0.08278743177652359,0.7987813949584961,0.3897605240345001,1.5698761940002441,-0.4310188591480255,-1.0942792892456055,1.8383203744888306,0.2570319175720215,0.5967082381248474,0.44517531991004944,0.33783331513404846,0.3392792046070099,-1.9130923748016357,-0.3325105309486389]},"C_post_norm":{"shape":[1,4,2,1,4],"data":[0.2846260368824005,0.2959364056587219,-1.1758110523223877,-1.5647574663162231,-0.526486873626709,1.592829942703247,1.0725332498550415,0.1871233582496643,-1.669419288635254,1.0352615118026733,-0.0522628016769886,-0.3720645606517792,0.15844731032848358,-1.3337005376815796,0.7079533338546753,-1.3018592596054077,-0.6375475525856018,-0.4187794029712677,-1.7404290437698364,-0.6235267519950867,-1.610159993171692,-1.0365426540374756,0.5499662756919861,-0.1741296350955963,-1.02399480342865,0.6640678644180298,1.5387390851974487,0.37727656960487366,0.17623117566108704,-0.2699968218803406,0.5842349529266357,-1.8853598833084106]},"B_biased":{"shape":[1,4,2,2,4],"data":[-1.0920523405075073,0.34539729356765747,1.6394131183624268,-0.01418466679751873,-1.0920523405075073,0.34539729356765747,1.6394131183624268,-0.01418466679751873,1.1147857904434204,1.4107714891433716,-0.8667080402374268,-0.12482000887393951,1.1147857904434204,1.4107714891433716,-0.8667080402374268,-0.12482000887393951,-0.9814394116401672,1.5976887941360474,0.4960496425628662,0.48781895637512207,-0.9814394116401672,1.5976887941360474,0.4960496425628662,0.48781895637512207,-0.3718891143798828,1.1381583213806152,-0.8589581251144409,-1.352180004119873,-0.3718891143798828,1.1381583213806152,-0.8589581251144409,-1.352180004119873,-1.272489309310913,1.3174339532852173,0.08278743177652359,0.7987813949584961,-1.272489309310913,1.3174339532852173,0.08278743177652359,0.7987813949584961,0.3897605240345001,1.5698761940002441,-0.4310188591480255,-1.0942792892456055,0.3897605240345001,1.5698761940002441,-0.4310188591480255,-1.0942792892456055,1.8383203744888306,0.2570319175720215,0.5967082381248474,0.44517531991004944,1.8383203744888306,0.2570319175720215,0.5967082381248474,0.44517531991004944,0.33783331513404846,0.3392792046070099,-1.9130923748016357,-0.3325105309486389,0.33783331513404846,0.3392792046070099,-1.9130923748016357,-0.3325105309486389]},"C_biased":{"shape":[1,4,2,2,4],"data":[0.2846260368824005,0.2959364056587219,-1.1758110523223877,-1.5647574663162231,0.2846260368824005,0.2959364056587219,-1.1758110523223877,-1.5647574663162231,-0.526486873626709,1.592829942703247,1.0725332498550415,0.1871233582496643,-0.526486873626709,1.592829942703247,1.0725332498550415,0.1871233582496643,-1.669419288635254,1.0352615118026733,-0.0522628016769886,-0.3720645606517792,-1.669419288635254,1.0352615118026733,-0.0522628016769886,-0.3720645606517792,0.15844731032848358,-1.3337005376815796,0.7079533338546753,-1.3018592596054077,0.15844731032848358,-1.3337005376815796,0.7079533338546753,-1.3018592596054077,-0.6375475525856018,-0.4187794029712677,-1.7404290437698364,-0.6235267519950867,-0.6375475525856018,-0.4187794029712677,-1.7404290437698364,-0.6235267519950867,-1.610159993171692,-1.0365426540374756,0.5499662756919861,-0.1741296350955963,-1.610159993171692,-1.0365426540374756,0.5499662756919861,-0.1741296350955963,-1.02399480342865,0.6640678644180298,1.5387390851974487,0.37727656960487366,-1.02399480342865,0.6640678644180298,1.5387390851974487,0.37727656960487366,0.17623117566108704,-0.2699968218803406,0.5842349529266357,-1.8853598833084106,0.17623117566108704,-0.2699968218803406,0.5842349529266357,-1.8853598833084106]},"cum_angles":{"shape":[1,4,2,2],"data":[4.523654937744141,5.554953575134277,4.987347602844238,5.746866226196289,2.909928321838379,5.985456466674805,4.603124141693115,5.849367141723633,1.9968070983886719,5.19902229309082,4.049622535705566,5.372658729553223,6.0598368644714355,4.702663421630859,3.2617383003234863,5.196512222290039]},"B_post_rope":{"shape":[1,4,2,2,4],"data":[1.8151872158050537,0.24834750592708588,0.7650808095932007,-0.24046626687049866,1.281330943107605,0.2896538972854614,1.4961433410644531,-0.18868257105350494,-1.0604686737060547,0.9698586463928223,-0.9323821067810059,-1.032099962234497,-0.5314791202545166,1.1489126682281494,-1.308227777481079,-0.8281641602516174,0.841329038143158,1.67050039768219,-0.7081342339515686,-0.0023240745067596436,0.6001150608062744,1.6547398567199707,0.921493649482727,-0.2289387583732605,0.5591691732406616,0.6914236545562744,0.7506266832351685,-1.6265695095062256,-0.8132821321487427,0.4643547534942627,0.4633386731147766,-1.7053357362747192,0.45045727491378784,1.3221542835235596,-1.1929672956466675,-0.7909438014030457,0.8482234477996826,1.4389207363128662,0.9521554708480835,-0.5506280660629272,0.2314298450946808,-0.23309016227722168,0.5330391526222229,-1.8993756771087646,-0.5795888304710388,0.09856092929840088,-0.04203963279724121,-1.911084532737732,1.9248273372650146,0.442654550075531,0.17470592260360718,-0.26134926080703735,-1.7535487413406372,0.513648271560669,-0.8127418756484985,-0.020295605063438416,-0.09430059790611267,-0.33579444885253906,-1.9404022693634033,-0.33602938055992126,-0.5646950602531433,-0.13638795912265778,1.8588095903396606,-0.45505160093307495]},"C_post_rope":{"shape":[1,4,2,2,4],"data":[-1.2083319425582886,-0.8205529451370239,-0.058971330523490906,-1.3648213148117065,-1.0543653964996338,-0.5451669692993164,-0.5931755304336548,-1.496274471282959,1.152264952659607,1.3133525848388672,0.3159138858318329,-0.9204494953155518,0.8893001079559326,1.4648046493530273,0.7979105710983276,-0.6530464887619019,1.6368211507797241,0.8805703520774841,-0.3324282169342041,-0.6593893766403198,0.13009494543075562,0.7829696536064148,1.6651629209518433,-0.7727593779563904,-0.3167589604854584,-1.6569247245788574,-0.6526616215705872,-0.8533435463905334,0.6864531636238098,-1.7573778629302979,-0.23470298945903778,-0.6206592917442322,1.8483331203460693,-0.7469862699508667,0.13865286111831665,0.07857030630111694,-0.9796851277351379,-0.749328076839447,1.573460340499878,-0.05166444182395935,0.16457366943359375,-0.63865727186203,-1.6935151815414429,0.8347806930541992,1.42426598072052,-0.7732748985290527,0.9308836460113525,0.7118902206420898,-0.6577353477478027,0.3708004057407379,1.7273296117782593,-0.6677055954933167,1.201041340827942,0.6430000066757202,-1.4049137830734253,-0.41215866804122925,0.3012595772743225,-1.8826448917388916,0.5306887626647949,0.2883199453353882,-0.10493622720241547,-1.7943660020828247,-0.6011458039283752,-0.638538122177124]},"qk_pre_dot_per_rank":{"shape":[1,4,2,2],"data":[-2.1140553951263428,-2.1140553951263428,0.7072692513465881,0.7072692513465881,3.0850343704223633,3.0850343704223633,-0.42464137077331543,-0.42464137077331543,-0.3825889527797699,-0.3825889527797699,-2.3013195991516113,-2.3013195991516113,-0.6256114840507507,-0.6256114840507507,-0.5228609442710876,-0.5228609442710876]},"qk_pre_dot_sum":{"shape":[1,4,2],"data":[-1.4067862033843994,-1.4067862033843994,2.660392999649048,2.660392999649048,-2.683908462524414,-2.683908462524414,-1.1484724283218384,-1.1484724283218384]}},"ssm_state":{"ssm_state_in":{"shape":[1,2,4,4],"data":[0.0,0.0,0.0,0.0,0.0,0.0,0.0,0.0,0.0,0.0,0.0,0.0,0.0,0.0,0.0,0.0,0.0,0.0,0.0,0.0,0.0,0.0,0.0,0.0,0.0,0.0,0.0,0.0,0.0,0.0,0.0,0.0]},"ssm_state_out":{"shape":[1,2,4,4],"data":[0.08543959259986877,-0.5589479804039001,-0.3473159670829773,0.49508869647979736,0.48468369245529175,0.22116361558437347,-0.4806477129459381,-0.6553888916969299,0.3295663595199585,0.5942140221595764,-0.11376194655895233,-0.8420576453208923,-0.6175257563591003,-0.0031435899436473846,0.6108378171920776,0.17157845199108124,0.09961329400539398,-0.19302017986774445,-0.14091728627681732,0.10654166340827942,-0.0041705407202243805,0.12913595139980316,0.11904635280370712,-0.28023239970207214,0.04341771453619003,0.8440650105476379,0.47457653284072876,-1.0126079320907593,0.06899261474609375,-0.06875091046094894,-0.059295251965522766,0.044175367802381516]}},"outputs":{"y_pre_outproj":{"shape":[1,4,8],"data":[-0.038500119000673294,-0.12903806567192078,0.010272420011460781,0.002208935096859932,-0.0014987591421231627,-0.05750204995274544,-0.07154743373394012,-0.004916094709187746,0.19318464398384094,-0.03353990614414215,-0.038033388555049896,0.008680108934640884,0.06593605130910873,-0.008256085216999054,0.010683145374059677,0.022756725549697876,-0.12241898477077484,-0.097250796854496,0.05803823843598366,-0.007889692671597004,0.00016328389756381512,-0.011566415429115295,-0.12218250334262848,-9.475611295783892e-05,-0.03276932239532471,-0.5465928316116333,-0.09871537983417511,-0.19541826844215393,0.017278654500842094,-0.02396411821246147,-0.013336323201656342,0.003253675764426589]},"y_final":{"shape":[1,4,8],"data":[0.057591602206230164,0.02978847734630108,-0.0027440153062343597,0.02606637217104435,-0.02447664551436901,0.019407112151384354,0.038104474544525146,-0.02197543904185295,-0.07634530961513519,-0.0778278261423111,-0.01863538660109043,-0.0742446705698967,0.07875388860702515,-0.0022057220339775085,-0.09434502571821213,0.017823953181505203,0.0837300717830658,0.0370536707341671,0.0025377944111824036,0.06160976365208626,-0.04680237919092178,0.0077437059953808784,0.08927418291568756,-0.020284302532672882,-0.008374255150556564,0.02056068740785122,-0.06475226581096649,0.10568096488714218,-0.07958657294511795,0.14176493883132935,-0.06380335241556168,-0.06354046612977982]},"y_pre_contract":{"shape":[1,4,2,2,4],"data":[0.013145742937922478,0.0440596379339695,-0.003507483983412385,-0.0007542335079051554,0.0009415347594767809,0.036123327910900116,0.044946763664484024,0.0030883357394486666,-0.09014598280191422,-0.30213576555252075,0.024052323773503304,0.005172103643417358,-0.003939053043723106,-0.151127427816391,-0.18804162740707397,-0.012920524924993515,0.6302548050880432,-0.08474849164485931,-0.12654538452625275,0.025234365835785866,0.23799090087413788,-0.06475990265607834,0.040669865906238556,0.08472896367311478,-0.24388550221920013,0.01766868308186531,0.050478607416152954,-0.007874147035181522,-0.10611879825592041,0.04824773222208023,-0.0193035751581192,-0.039215512573719025,0.03663310036063194,-0.03959658741950989,-0.0011359701165929437,0.00626862607896328,0.002695320872589946,0.0029241228476166725,-0.03770054131746292,0.0002272240089951083,-0.2814710736274719,-0.15490500628948212,0.1172124445438385,-0.022048011422157288,-0.0023687530774623156,-0.02605695277452469,-0.20666445791721344,-0.00041673623491078615,-0.20148968696594238,-0.5170189142227173,0.08042046427726746,-0.31146863102912903,0.010774376802146435,0.015774309635162354,0.010283824987709522,0.003007297171279788,0.13595104217529297,-0.5761666893959045,-0.2778512239456177,-0.07936790585517883,0.02378293126821518,-0.0637025460600853,-0.03695647045969963,0.00350005435757339]}}}